0.637898  0.645220  1.102837  -0.085159  0.933691  -0.694772  0.094926  -0.122748  -0.183899  -0.004966  0.433039  0.856897  0.712900  0.059300  0.777061  -0.213377  0.473237  0.021130  0.206179  -0.349925  -0.001986  0.152227  -0.336126  -0.619860  -0.218514  -0.565570  0.082764  -0.774174  -1.015491  1.544934  -0.257844  -0.813428  -0.577323  0.307234  0.848235  -0.911571  0.912315  0.054183  0.295482  -0.022286  -0.058930  -0.678154  -0.593062  -0.158124  0.061711  0.056719  -1.530799  -0.247089  -1.024123  -0.030859  0.527579  1.191303  0.752435  0.012004  -0.394538  0.287291  0.243522  0.870632  0.460161  -0.641757  -0.140539  0.460258  -0.228375  -0.814956  -0.112164  0.809790  -0.825718  0.663776  0.508208  -1.279990  -0.219779  -0.465819  0.019179  -1.057487  -0.447704  0.037633  -1.004677  0.137594  -0.903900  -0.073884  -0.389043  -0.567261  1.060495  -0.195899  0.821188  0.740776  0.250426  1.160642  0.999477  0.425266  0.078443  -0.491156  0.263353  0.965086  0.290573  -0.829541  0.638588  -0.301679  0.129541  0.843770  0.880947  -0.270894  0.598158  0.247861  -0.126521  -0.861337  0.733380  -0.618784  -0.899471  0.591529  0.828071  -0.351330  -1.030195  0.254780  -0.634223  0.071635  -1.098963  -0.076342  0.521248  0.301105  -0.340384  -0.769946  -0.489080  -0.621680  0.001938  -0.942779  -0.095262  -0.699868  1.059842  0.723644  -0.204192  0.676992  -0.336687  0.096246  -0.081228  1.033927  0.074904  -0.389232  -0.298802  -0.176292  0.634131  -0.644676  0.633040  0.209814  -0.175803  0.461404  -1.251015  -0.729018  -0.414022  0.722800  -0.892991  -0.848980  0.073785  -0.377651  -0.776403  0.045394  0.574371  -0.938976  -0.310226  -0.552999  0.275808  0.030356  0.523187  0.120406  0.674577  -0.794903  1.012534  0.551799  0.852484  0.935549  0.019366  0.212162  -0.781468  -0.546474  -1.379816  0.899109  0.924842  -0.186311  0.670789  -0.669053  -0.734758  0.936820  -0.788356  -0.832686  0.531753  -0.037372  -0.593106  0.752546  0.406413  0.119555  0.945875  1.243260  -0.329211  2.850460  0.365088  0.632656  0.528017  -0.707675  0.044340  0.883695  -0.741077  0.241725  -0.411342  0.538646  0.331825  0.514059  -0.254477  -0.324743  0.188542  -1.007503  0.849882  -0.887523  -0.042970  -0.144887  -0.923370  -0.517261  0.524992  -1.015018  -0.363145  0.337157  0.717641  0.666677  0.565620  -0.064385  -0.218077  -0.402886  0.346118  0.780436  0.233796  -0.598112  -1.001993  0.504343  -0.525454  -0.586151  0.534095  -0.976444  -0.959628  0.124446  1.119773  0.780492  0.474973  0.143508  -0.235940  0.289381  0.843094  0.627949  -0.022020  -0.371671  -0.236638  -0.915791  -0.655054  0.436090  0.479669  -0.097604  -0.311439  0.924337  -0.249797  -0.099492  -0.199958  -0.000523  -0.714873  0.588437  0.501518  -0.574714  0.332926  0.055679  -0.334240  1.114254  -0.628261  0.225681  -1.030824  0.572556  0.203484  -0.525128  -0.945011  0.315626  0.183219  -0.024880  -0.012669  0.757094  -1.010433  0.869320  -0.416994  -0.475535  -0.322368  1.058198  -0.096478  0.030126  0.199723  0.270384  0.881131  0.692676  -0.353593  0.868734  0.905189  0.879587  -0.493077  0.361064  -0.746148  -0.601562  0.018192  0.076040  -0.611831  0.565342  1.224493  -0.495116  -0.608529  -0.701148  0.214975  -0.196444  0.345569  -0.128097  0.948261  -0.165789  0.060963  -0.209603  -0.034367  0.966723  -0.303026  0.840232  -0.565805  0.022322  -0.047407  0.372673  1.554090  0.381143  -0.510549  0.333797  -0.235853  0.995132  -0.147737  0.537779  0.311455  0.233624  -0.569631  -1.306076  -0.344265  -0.188075  0.069892  -0.721814  0.318503  1.441684  0.238507  -0.522855  -0.681625  0.208280  -1.003296  0.650412  0.169037  -0.257142  -0.403022  0.629993  -0.323892  -0.349238  -0.298152  -0.726116  -0.776880  0.124941  -1.934515  -0.114777  