-0.997497  0.127171  -0.613392  0.617481  0.170019  -0.040254  -0.299417  0.791925  0.645680  0.493210  -0.651784  0.717887  0.421003  0.027070  -0.392010  -0.970031  -0.817194  -0.271096  -0.705374  -0.668203  0.977050  -0.108615  -0.761834  -0.990661  -0.982177  -0.244240  0.063326  0.142369  0.203528  0.214332  -0.667531  0.326090  -0.098422  -0.295755  -0.885922  0.215369  0.566637  0.605213  0.039766  -0.396100  0.751945  0.453352  0.911801  0.851436  0.078707  -0.715323  -0.075839  -0.529344  0.724479  -0.580798  0.559313  0.687307  0.993591  0.999390  0.222999  -0.215125  -0.467574  -0.405438  0.680288  -0.952513  -0.248268  -0.814753  0.354411  -0.887570  -0.982421  0.837580  -0.448225  -0.454207  0.175817  0.382366  0.675222  0.452990  -0.021773  -0.580933  0.495821  -0.063082  -0.084078  0.898312  0.488876  -0.783441  0.198096  -0.229530  0.470016  0.217933  0.144810  -0.277322  -0.696890  -0.549791  -0.149693  0.605762  0.034211  0.979980  0.503098  -0.308878  -0.662038  0.314615  -0.016205  -0.872917  0.399522  0.017970  -0.665948  0.938227  -0.677797  0.848774  0.385785  -0.393902  -0.146886  -0.859249  0.933226  0.366375  -0.693533  0.754509  0.643361  0.164098  -0.617298  -0.644215  0.634388  -0.049470  -0.688894  0.007843  0.464034  -0.188818  -0.440840  0.157020  0.381799  0.529818  0.461944  -0.027093  -0.731157  -0.238560  0.692467  -0.907328  0.033647  0.325857  -0.144632  -0.787718  0.898679  0.842769  0.099094  -0.308023  -0.056551  -0.250038  0.693960  -0.371019  -0.092568  -0.460988  0.957952  -0.412390  0.470388  0.126566  -0.597540  0.555940  0.713470  -0.170105  0.070426  0.841519  -0.882563  1.055169  0.164489  -0.879838  0.084863  -0.591207  0.695716  0.256507  0.315226  -0.604297  0.684317  -0.753349  -0.780145  0.486251  -0.371868  0.877371  -0.423106  -0.322640  -0.727672  0.457972  0.661576  0.434513  0.232902  0.526855  -0.460360  -0.650071  -0.935779  -0.813763  0.676974  0.745119  -0.538735  -0.739073  0.119509  -0.961533  -0.754563  -0.096686  0.495741  0.363936  0.086886  -0.852229  -0.126560  -0.596118  0.392437  -0.424683  -0.122512  -0.534592  0.146555  0.053311  0.245516  -0.665894  0.040455  0.972859  0.454755  0.908378  -0.557755  -0.267049  -0.627677  1.021786  -0.053487  1.020449  -0.780486  0.274751  -0.778811  -0.118841  0.868738  -0.897089  0.789239  -0.419965  -0.545396  0.538133  -0.178564  -0.605633  0.256064  0.208839  -0.105678  -0.075939  0.179115  0.300671  0.740706  0.708525  0.318520  0.505090  0.193251  -0.225645  -0.603208  0.503032  0.159358  0.834686  -0.489763  -0.603600  0.244857  0.403125  0.175270  -0.291358  -0.011078  -0.839228  0.481490  0.224110  0.240761  0.381281  0.617593  -0.693233  0.151160  0.734551  0.810044  0.261477  0.489768  -0.855863  0.399205  0.979678  -0.374893  0.126467  -0.369497  -0.607389  -0.733782  0.759297  0.729318  0.521858  -0.644974  -0.331702  -0.826899  -0.846797  0.281960  0.640004  0.090182  -0.103475  -0.182043  -0.393973  -0.060345  0.010951  -0.691419  -0.350736  0.466505  -0.374603  0.667670  0.933247  0.764125  0.475050  -0.392863  0.888874  -0.718786  -0.814552  0.635475  0.085047  0.254996  0.946073  -0.874640  0.751271  0.307718  -0.355754  -0.790399  0.010102  -0.545824  -0.419416  0.839961  0.111828  0.338324  -0.758206  -0.011697  -0.238542  0.008917  0.595614  0.018614  -0.217459  0.393736  0.062721  0.227940  -0.198193  -0.930578  0.478124  -0.749244  0.262917  0.748395  0.002384  0.475432  -0.006195  -0.239784  0.570727  0.105625  -0.285806  0.911435  0.261696  -0.646840  -0.242004  -0.727248  0.499279  0.906637  0.214473  -0.952033  -0.339906  -0.851334  0.317295  -0.714152  0.709470  0.776626  0.242174  0.530068  0.792336  -0.915455  -0.715035  0.445967  0.261905  -0.584108  -0.868099  -0.662160  0.248207  -0.318033  -0.361187  -0.264870  0.322001  0.604785  0.623257  0.062571  0.234927  0.599153  0.791700  -0.718078  0.302876  -0.123989  -0.418016  -0.644475  0.752751  -0.799823  -0.083638  0.223207  -0.323669  0.172676  -0.522661  -0.350427  -0.789638  0.605181  -0.730583  -0.431501  0.576220  0.790460  0.579272  0.487594  0.230445  -0.277749  0.722808  -0.533517  0.736663  -0.538532  -0.500732  0.119227  1.008588  -0.826544  -0.766457  0.094251  -0.075871  -0.740727  -0.404607  0.859560  -0.458719  -0.630316  -0.710990  0.859648  -0.866686  -0.933525  -0.895264  -0.339888  0.816698  -0.202796  -0.134434  0.892331  0.674368  0.068453  0.693693  0.396565  -0.195398  -0.471123  -0.978617  0.081386  0.965048  -0.134801  -0.453574  0.222602  -0.417535  0.439044  0.923715  -0.082742  0.820690  -0.910749  0.936942  0.173941  0.539713  0.124130  -0.727839  -0.568044  -0.246689  -0.991455  -0.164159  -0.835505  0.319865  0.710196  -0.870296  0.631619  0.333366  0.393937  0.618281  0.078502  0.436489  -0.651595  0.430758  0.491320  0.624002  -0.873431  0.797176  0.328159  0.455516  -0.768666  0.160977  0.866650  -0.911495  -0.479282  -0.722351  0.950857  0.239967  -0.415510  0.844966  -0.264931  0.389081  -0.562731  -0.688162  -0.518906  0.042609  0.811122  -0.784594  0.807867  -0.084851  -0.803711  0.600840  -0.639460  0.955922  0.558521  0.764877  -0.529925  -0.045248  -0.932369  0.561343  -0.798813  -0.215256  -0.395354  0.980049  -0.928029  -0.495834  -0.621448  -0.504624  -0.692984  0.240638  0.770745  0.878170  -0.608692  0.553523  0.297679  0.316087  0.816145  -0.060686  0.875584  0.359808  -0.678766  0.287899  0.164858  -0.131188  0.933164  0.133459  0.217288  0.131268  -0.503611  -0.220372  -0.316835  -0.931936  0.585322  -0.606983  -0.859432  -0.221168  0.181494  -0.858150  -0.604663  -0.688223  0.288675  -0.097132  0.257655  0.437756  -0.074619  0.396672  -0.174037  0.708312  0.199726  -0.599386  0.923726  0.795380  -0.171330  1.035743  -0.567545  0.853621  0.139796  -0.130009  0.237320  0.411855  -0.905934  -0.428877  -0.479598  -0.184729  0.790643  0.420393  0.456893  0.792108  -0.212799  -0.175294  0.847530  -0.348824  -0.189891  0.164659  -0.260643  0.500822  0.498617  0.506696  0.529482  -0.677348  -0.529497  -0.396306  0.419498  0.884709  -0.273226  0.026360  -0.782207  0.814875  -0.593860  0.035920  0.309671  -0.122959  0.375286  -0.819147  -0.840876  -0.848445  -0.944327  -0.260304  -0.353872  0.410328  -0.702437  -0.198536  -0.812294  0.407093  0.507199  -0.548045  0.457092  0.300346  0.369111  0.147778  -0.740988  0.091322  -0.909662  0.940203  -0.072896  0.939940  0.455733  0.061922  0.359844  0.385601  -0.255776  -0.222755  -0.900082  0.619556  -0.660810  -0.848483  -0.358178  0.584955  -0.564958  -0.346042  -0.011878  -0.926082  -0.064460  0.088677  0.281837  0.595704  -0.135234  -0.241180  0.685888  0.885231  0.237667  0.993604  -0.889840  0.125706  0.727103  -0.226478  -0.387188  -0.431562  -0.946593  0.225135  -0.217627  -0.962767  -0.937323  -0.057463  0.738253  0.887052  -0.176764  0.473794  0.250439  0.643999  0.786838  0.216756  0.242205  -0.783004  0.576313  -0.074008  0.182740  0.183602  0.141625  0.635353  0.348723  -0.312845  -0.979553  -0.465377  -0.316874  -0.535813  0.542039  -0.256508  0.739738  -0.766289  0.451689  0.258385  0.819028  -0.603441  0.091535  0.823881  0.583627  0.953613  -0.579014  0.813239  0.605338  0.917470  0.689777  0.782227  0.266923  -0.619579  0.233863  -0.470016  -0.498703  0.464400  0.576220  -0.658132  0.427778  -0.038118  -0.837031  0.613086  0.710685  -0.750725  -0.385052  0.146641  -0.054002  0.524140  -0.616255  0.455567  0.993591  -0.966081  0.294977  0.401460  -0.633953  -0.856173  -0.450460  0.352848  0.677443  0.113315  -0.257546  0.559008  -0.534959  0.276467  -0.536668  -0.590808  0.942076  -0.436506  -0.954222  0.538438  -0.696341  -0.906064  -0.981506  -0.302789  0.287805  -0.313483  -0.170868  -0.167008  -0.818695  0.090370  0.398516  -0.324040  0.315013  0.752092  0.070552  0.139646  -0.892429  -0.068453  -0.480026  -0.146397  0.726676  -0.026826  -0.825129  0.131626  0.418805  0.556932  0.728446  0.701102  -0.413984  0.728752  0.289834  0.493698  0.657277  0.531236  0.743828  0.816645  0.825068  0.043916  -0.119663  -0.784722  -0.291971  0.646107  -0.144566  -0.660329  -0.998291  0.314921  0.547105  -0.872555  -0.820368  -0.228675  0.367779  0.615223  -0.691824  -0.714286  -0.903073  -0.307718  -0.962889  0.956847  0.295267  -0.892697  0.828303  0.274941  -0.136570  -0.957884  -0.514817  -0.216102  0.308023  0.563768  -0.954344  0.652089  -0.723136  0.268532  0.100803  0.966979  -0.073153  -0.570421  -0.398602  0.564318  -0.314920  -0.038789  0.216040  -0.794977  0.968871  0.511643  -0.698233  -0.087191  0.423261  0.997497  0.551012  0.283303  0.242409  0.892209  0.376324  -0.420392  0.134312  -0.419233  0.096469  0.424726  -0.507126  0.093356  -0.014740  0.904111  0.339640  0.530320  0.246742  -0.108493  0.597522  0.491073  0.977844  -0.590747  0.258950  0.819636  0.182592  0.836787  0.011078  -0.021210  -0.100558  0.778680  0.880795  -0.634144  -0.496078  -0.593982  0.460982  0.882260  0.250160  -0.917451  0.277132  -0.936528  0.107144  0.088961  -0.107334  -0.877255  0.992065  -0.744499  0.201819  -0.899289  -0.654408  0.320475  -0.335124  -0.368084  0.307169  -0.178930  -0.144993  -0.556749  0.357036  -0.667104  -0.004914  0.015290  0.605457  -0.129856  -0.990967  -0.321181  -0.248364  -0.750678  0.646826  0.458771  0.776720  0.286661  0.301187  0.028962  0.467940  0.474349  0.914182  -0.068331  -0.273476  -0.775628  0.809320  0.642445  -0.090426  -0.782647  0.738884  0.522752  -0.921751  -0.166662  0.872249  -0.864498  -0.670278  -0.577442  -0.766178  0.176260  -0.769265  0.247961  0.171608  0.411525  0.494048  0.873920  0.363033  -0.396894  0.629126  -0.232229  0.994995  0.545030  -0.591174  -0.658864  -0.223487  -0.637562  0.161962  -0.609520  0.919518  -0.620266  -0.236553  -0.392014  -0.758358  -0.603690  -0.907487  0.522685  0.504360  0.743422  -1.015390  -0.131273  -0.156202  0.594104  -0.073737  -0.004298  0.508665  -0.491196  0.150247  -0.803110  0.844050  0.787652  0.714042  -0.880734  -0.018220  0.264077  0.494430  0.511363  -0.497269  0.811059  0.583895  -0.600833  0.104965  -0.918498  0.023361  0.560838  0.390076  -0.977094  0.436032  0.103465  0.825172  0.750724  0.593854  -0.389137  -0.191496  -0.017426  -0.870934  0.307857  -1.005766  0.525805  0.512375  -0.560533  -0.690481  -0.884945  0.341227  -0.935401  -0.317031  0.387003  0.595487  -0.128168  0.962747  0.250142  -0.385779  -0.053574  0.720935  -0.833879  -0.785057  -0.726836  -0.740512  0.802257  -0.416286  -0.285452  0.591707  -0.888280  0.651963  -0.527631  0.788144  -0.498486  -0.461287  -0.583972  -0.541246  0.692312  0.749687  0.774591  0.680781  0.209813  -0.918953  -0.654403  -0.638811  -0.294647  -0.108508  -0.641074  0.762476  0.238991  0.076116  0.789203  0.019646  0.435871  0.973155  0.908948  0.705133  0.681487  -0.684274  -0.263990  -0.442760  -0.669573  0.947508  0.483627  0.433210  -0.908390  0.290078  0.624627  0.463066  0.627611  -0.751467  0.437046  -0.267348  0.282487  0.800700  0.761021  -0.942617  0.542035  -0.116539  -1.019840  -0.558666  -0.188435  -0.713694  0.806350  -0.023371  -0.486597  0.516500  0.811602  -0.573197  -0.935789  0.542344  -0.543504  0.113193  0.642622  0.704031  -0.345549  0.069076  0.974854  0.737983  0.279405  -0.560874  0.603892  -0.268121  -0.295040  -0.954666  0.118288  -0.224205  -0.771603  -0.352603  0.795448  -0.596542  0.872769  -0.765019  0.726257  0.826687  -0.110149  -0.555773  0.269509  0.120151  0.248085  -0.152684  -0.967040  0.728263  -0.728744  -0.473950  -0.424815  0.360345  0.106357  0.895342  0.211946  0.560214  -0.179376  0.603408  0.521598  -0.675733  0.064454  -0.950305  -0.985140  0.504715  -0.340313  0.790749  -0.048085  0.574604  -0.898984  0.261940  -0.951659  0.364849  0.938169  0.000885  0.412763  -0.468123  0.636715  0.285264  0.185678  -0.496448  0.650394  -0.093737  0.483929  -0.268412  -0.942334  -0.005060  0.314415  -0.180229  -0.230987  -0.933090  -0.421492  0.201932  0.763258  -0.153916  0.886428  -0.197353  0.066256  -0.979858  0.948485  0.730399  -0.125156  0.399274  -0.334086  0.204688  -0.010888  0.111248  -0.930751  -0.299927  -0.571994  0.860821  0.747261  0.961244  0.265653  0.236556  -0.866077  -0.193517  -0.412833  -0.008485  -0.830665  0.751358  -0.390070  0.538058  0.896934  0.208144  -0.567553  -0.441389  0.121433  0.748833  -0.499863  -0.397198  0.454268  0.733207  -0.545816  -0.626568  -0.114406  0.742404  0.168629  -0.922485  1.012525  -0.886634  0.239216  -0.472120  -0.657550  -0.768075  -0.540486  -0.005730  0.930123  -0.900171  -0.885613  -0.301737  -0.409350  0.054668  -0.031139  -0.187699  0.837124  0.202124  -0.415693  -0.048494  -0.196692  0.902646  0.088725  0.661862  0.598339  0.586875  0.220928  0.733349  -0.395626  0.875153  -0.462510  0.883013  0.436995  -0.769704  0.530931  -0.050532  -0.648000  -0.953198  -0.934222  -0.107836  0.748030  -0.720571  -0.983316  -0.586698  0.624776  0.594409  0.559313  0.316996  -0.402509  0.562853  0.843013  0.676267  -0.505271  0.026195  -0.960615  -0.860636  -0.956975  -0.308096  0.404856  -0.180666  -0.619157  -0.434728  -0.654664  0.469967  -0.733433  -0.914146  0.038521  -0.299675  0.579440  -0.675159  0.787440  -0.748679  -0.941527  -0.637135  0.636158  -0.501572  0.141392  -0.306192  0.079867  0.329813  0.758981  0.836525  0.880466  -0.799398  -0.726177  0.100629  0.609601  0.845786  -0.891036  0.720240  0.631188  -0.240879  0.102771  0.337336  -0.115623  -0.441523  0.877157  0.943011  0.417365  0.150878  -0.455245  -0.736076  -0.604114  0.201025  -0.025300  -0.289346  -0.540147  -0.043123  0.366202  0.867776  0.332170  0.950655  -0.556473  0.031068  -0.502001  0.779381  -0.049045  -0.367588  0.057893  0.123237  -0.289422  -0.310121  -0.671487  -0.441854  -0.583248  0.806882  0.440620  0.575268  0.300882  0.373394  -0.459822  0.533738  -0.871151  0.443526  0.718131  -0.316874  -0.928637  -0.059433  -0.982277  0.668119  0.250028  0.093485  0.198333  0.133944  0.531334  0.262719  0.355959  0.497704  0.755588  -0.651136  -0.146356  0.590015  -0.998885  -0.162019  -0.954442  -0.026130  -0.461470  -0.863460  -0.510300  0.964110  0.012909  0.231056  -0.857967  -0.264992  0.894879  0.691534  -0.360257  -0.547587  -0.440078  -0.920240  0.967820  -0.689283  -0.898329  -0.583993  -0.420958  0.561058  0.331956  -0.799774  -0.467766  -0.730042  -0.567927  0.124368  -0.643483  0.264565  -0.786187  -0.092563  0.517686  -0.332377  -0.885189  -0.434980  0.388592  0.746513  0.101500  0.697033  -0.872289  0.558454  0.971111  0.236191  0.206883  0.162140  0.159071  -0.623502  0.943290  -0.530145  -0.884241  -0.526321  -0.498512  -0.187169  0.589100  -0.455854  0.800104  -0.241127  0.455123  -0.587024  -0.894101  0.209143  -0.292032  -0.277505  0.336222  0.952086  -0.592755  0.737980  -0.331318  0.884935  0.301656  -0.617813  -0.417998  -0.270269  0.040938  -0.410830  -0.538025  -0.811762  -0.789733  0.416503  0.678831  0.342938  0.637502  -0.989235  -0.017308  0.209265  0.870663  -0.418744  0.211646  0.493820  0.747673  0.824458  0.660207  0.211184  -0.400182  0.547175  -0.716232  0.075253  0.375647  -0.189333  1.005693  -0.756809  -0.122536  -0.923135  0.392162  -0.510523  -0.663318  -0.550658  -0.630757  0.723647  0.525826  -0.905553  -0.033544  -0.887692  0.922483  -0.830012  0.130955  0.925108  0.147801  0.757317  -0.182592  -0.194346  -0.173654  0.307115  0.639731  0.852458  -0.476603  -1.016480  0.211584  -0.914241  0.364738  -0.138425  0.926153  0.179622  -0.632702  -0.179232  -0.326880  0.246250  0.616806  -0.990299  -0.789487  -0.211158  -0.446272  -0.366436  0.648488  0.707022  -0.376934  -0.604663  0.129368  -0.061861  0.990234  -0.133084  -0.262605  -0.182713  -0.250416  0.151091  0.745213  -0.307311  -0.157420  0.922894  -0.016603  -0.197700  0.181706  0.518631  -0.832698  -0.697623  -0.584155  -0.825312  -0.365459  -0.056368  0.258278  -0.334452  -0.841365  0.229041  -0.714347  -0.438582  0.649953  -0.121860  0.989264  -0.557658  -0.783700  0.017732  -0.491506  -1.006347  0.152141  0.559005  -0.767086  0.956162  -0.296030  0.773094  0.008544  -0.589557  -0.394757  -0.043062  -0.378765  -0.171178  0.529466  0.683218  -0.221778  -0.145054  0.448347  0.469832  -0.817194  -0.836543  0.506150  0.693960  0.275613  -0.280740  -0.049959  -0.811212  -0.169408  -0.623280  -0.313761  0.826777  -0.541368  -0.379376  -0.691458  -0.316935  -0.635426  -0.455428  -0.588122  -0.655080  -0.329447  -0.869137  0.003815  0.927366  0.618519  -0.107089  0.825983  -0.641469  -0.036164  -0.055818  0.398480  -0.502792  0.873409  -0.445112  -0.400922  0.644887  0.639271  0.259804  0.590136  -0.985595  -0.478072  -0.420942  0.905942  0.718925  0.034883  0.415021  -0.487655  0.842097  -0.017487  -0.812922  0.651967  -0.846614  -0.434736  -0.232276  0.286538  0.030183  -0.136937  -0.718558  0.949950  -0.850764  -0.989624  0.829585  -0.176672  0.510666  -0.624683  -0.796564  -0.153722  0.355876  0.054842  0.648427  0.674368  -0.457015  -0.001007  0.740898  -0.702017  0.941588  0.076754  -0.558641  -0.866512  -0.590747  -0.604541  -0.614185  -0.600940  0.913572  0.186987  0.477584  -0.411237  0.359661  0.572253  0.842647  0.856868  0.688650  -0.482040  -0.789117  -0.876217  0.807550  -0.703360  0.785516  -0.291681  0.902873  -0.247370  -0.347592  0.369121  0.775079  -0.239784  -0.133457  0.349284  -0.465804  -0.034333  0.055696  0.604114  0.588244  0.492660  -0.026643  0.655568  0.118076  -0.442427  -0.305643  -0.891720  0.822504  0.525803  -0.263039  -0.435224  -0.577502  -0.361385  -0.929182  0.719511  -0.574210  -0.264203  -0.748891  0.722422  0.216224  0.567309  -0.606311  -0.096591  0.523545  -0.133335  0.272927  0.609119  -0.651112  -0.354656  0.926389  0.418805  -0.604907  0.725761  -0.905393  0.486435  -0.927915  -0.738334  -0.835261  0.145336  0.185566  0.082435  -0.546462  -0.879591  -0.424730  -0.902973  -0.229263  -0.709380  -0.493462  0.644448  0.034799  -0.445319  0.975890  0.833064  -0.756523  -0.431135  0.413923  -0.058138  -0.410504  -0.308152  0.052760  0.626421  0.059720  -0.840088  0.683702  0.092332  -0.778576  0.045300  0.895890  0.448091  -0.098276  -0.139608  0.798978  0.059006  -0.270724  0.801725  0.342514  -0.744132  0.051195  -0.731558  -0.440413  0.092929  0.582568  -0.261635  0.716239  0.488693  -0.072298  -0.278122  -0.090483  0.197185  -0.190349  0.273471  0.160326  0.004730  0.741344  -0.561377  -0.970185  -0.816678  -0.953711  -0.584790  -0.523453  -0.165660  0.429881  -0.106812  -0.714724  0.113936  0.739125  0.655165  -0.565150  0.845950  -0.373272  -0.713553  0.213721  -0.979431  0.911130  0.092299  -0.185653  -0.909349  -0.455440  0.857070  0.270565  -0.614749  -0.901047  0.142761  0.848693  0.322971  -0.528417  -0.161530  1.035512  -0.743565  -0.150522  0.036577  -0.276852  -0.317374  0.276734  -0.500168  -0.421797  0.065324  0.797357  -0.043855  -0.343669  0.349162  -0.079318  0.220631  -0.096567  0.910470  -0.713092  0.403691  -0.629120  -0.450353  -0.750736  -0.779665  0.395016  0.706358  0.036177  0.013726  0.402561  -0.082420  0.331242  -0.746051  0.711593  -0.218796  0.757059  0.040154  0.922833  -0.212333  0.451399  0.261208  -0.251747  0.628511  0.705130  -0.843315  0.538757  -0.220448  -0.494908  0.639909  0.604954  -0.434112  0.153113  -0.614441  -0.711126  0.580475  -0.059748  -0.332665  -0.559536  0.168993  -0.466171  -0.307231  -0.490153  0.363953  0.382185  0.342280  0.286637  -0.887936  -0.340983  0.904477  -0.358623  -0.383056  -0.674062  -0.212949  -0.397159  0.975415  -0.517763  -0.483201  0.231024  0.532005  0.162552  -0.468589  0.403346  -0.269090  0.512287  -0.828544  0.485982  0.342509  -0.698493  0.498105  -0.215131  0.080321  0.799985  0.183879  -0.009674  -0.938414  0.343547  0.106967  -0.300821  0.145177  0.528550  -0.933555  -0.986077  0.106547  0.486438  -0.455443  0.597202  0.712276  0.445672  -0.413974  0.125630  -0.097139  -0.731271  -0.122129  -0.726624  0.402512  -0.620702  0.377111  0.326857  0.509279  0.847365  0.513169  0.139012  -0.470138  -0.777093  -0.465743  0.466903  0.954955  -0.024201  -0.549022  0.623561  0.238448  -0.309334  -0.008081  1.049568  -0.261510  0.919124  -0.530363  0.301220  0.209413  -0.637016  0.959241  -0.055054  0.279098  -0.845714  0.274423  0.462167  -0.773226  0.372374  -0.600818  -0.531297  0.464278  0.989074  0.508225  0.786615  0.095309  0.783563  0.758880  0.253066  0.452444  0.476498  -0.669478  0.564995  -0.738969  -0.205066  0.203789  0.419002  0.734684  0.792855  -0.827209  -0.194531  0.226965  -0.008593  -0.097910  0.566505  0.180303  -0.257651  0.166112  -0.279336  0.499496  -0.837092  -0.808710  0.994140  -0.911069  -0.206641  -0.762468  -0.148924  -0.111020  -0.446198  -0.041074  -0.520537  -0.518841  0.250405  0.792247  0.817185  -0.095646  -0.164918  -0.525871  0.946846  0.486658  -0.301011  0.442041  0.273493  0.338281  0.840446  0.383195  -0.510509  -0.782315  0.063326  0.431013  0.135899  -0.969787  0.021821  -0.061946  0.962865  0.800449  0.436667  -0.466057  -0.796540  -0.531964  -0.103791  0.199872  -0.815476  -0.191807  -0.728344  1.082526  0.569829  -0.829435  -0.975181  0.405422  0.971300  0.494871  0.585078  -0.699602  0.374772  0.225589  0.325968  0.952025  -0.857784  0.814814  0.722648  0.256996  0.799164  0.171462  -0.680191  0.803480  0.148560  -0.520552  -0.682604  0.246836  0.682832  0.339259  0.735056  -0.032656  1.032476  0.376540  0.505934  -0.806875  0.688731  0.558400  1.031624  0.670793  -0.371658  -0.764702  -0.588977  -0.416425  0.895566  0.684988  -0.500473  -0.568163  0.732353  -0.138215  -0.547276  0.869551  0.513377  -0.278680  -0.282658  0.084014  0.261352  0.907578  0.504828  0.559291  -0.186510  0.190508  0.977133  0.280937  -0.292385  -0.088862  0.303128  0.391389  -0.019695  0.336772  -0.463301  -0.790521  -0.869625  -0.720450  -0.092074  -0.639454  0.293008  0.713622  -0.457814  0.647254  0.256653  0.778602  -0.828637  -0.518795  -0.030067  0.423985  0.396243  -0.703972  -0.219927  0.005157  0.904963  -0.829397  -0.077759  -0.831647  0.059163  -0.378773  0.550333  0.648305  0.475631  0.127903  -0.896542  -0.625294  0.981750  -0.145604  0.286843  0.412161  0.826583  0.729845  0.878596  -0.075951  -0.084736  0.409351  0.489571  -0.226509  0.522215  -0.410296  -0.230105  -0.935767  0.648032  0.521816  -0.149214  -0.570039  -0.817390  -0.499260  0.251431  0.534532  -0.347697  -0.490585  -0.030061  0.503769  0.123875  -0.304178  0.394424  0.916393  -0.157278  -0.390713  0.824181  0.165498  0.198424  -0.339795  0.641742  0.714952  0.659507  -0.108700  -0.832019  0.298571  1.005709  0.366734  -0.019998  -0.623212  0.132100  -0.553999  0.723991  -0.422163  0.979125  0.639882  -0.194983  -0.356548  -0.202673  0.315165  0.863555  0.837318  -0.405273  0.591250  0.110546  0.982131  0.828335  0.273756  -0.919807  -0.465010  -0.445173  0.586059  -0.457123  -0.371779  -0.282552  0.832894  0.619899  -0.503494  -0.357029  -0.571089  0.922361  -0.509018  0.867183  0.635975  -0.793207  0.154515  -0.545274  -0.248085  -0.615372  0.603775  0.816658  -0.312255  -0.813704  0.581823  0.525797  0.154963  0.079823  -0.312959  -0.799079  -0.860092  0.568314  -0.886339  -0.352412  -0.379240  -0.700339  0.050515  -0.352453  0.495623  0.196997  0.159093  0.851741  0.320902  0.419599  0.162572  -0.856441  -0.410504  -0.933235  0.564072  1.029831  0.208433  -0.304858  0.028067  -0.644589  0.116623  -0.566028  0.095415  -0.239637  0.087244  0.429865  0.515120  0.467787  0.256940  -0.760180  0.907046  0.454395  -0.873071  -0.544115  -0.002350  -0.732658  0.947874  -0.086642  0.569262  0.224464  0.549425  0.260921  0.714487  -0.402754  1.032821  0.772441  -0.286233  -0.668586  -0.746991  0.977414  0.918345  0.158441  -0.741571  -0.753269  -0.253538  -0.168179  -0.102930  0.483050  0.623313  0.207590  0.770412  0.127354  0.814692  -0.588183  -0.541551  -0.641774  -0.121189  -0.359233  -0.566454  0.669484  0.567370  0.713820  -0.202346  -0.101760  0.902030  -0.896813  0.606314  -0.391359  0.020802  -0.537743  0.356928  -0.401091  -0.635534  0.763984  -0.055330  0.685598  0.823542  0.170568  -0.681387  -0.107944  0.364055  0.635670  0.964110  0.930906  0.028901  -0.824030  -0.898556  0.153722  0.726577  0.186887  0.216133  0.172907  -0.423691  0.572796  -0.240458  0.748849  -0.775306  0.947971  -0.864972  -0.144369  -0.292750  -0.263330  -0.996033  -0.365886  -0.576891  0.563707  -0.018464  -0.877743  0.778008  -0.204810  0.137181  -0.109531  0.413129  0.137120  0.170202  0.212439  -0.608936  -0.249550  0.552049  0.811640  0.128574  0.624195  0.597766  0.896481  0.540330  -0.605762  0.259987  0.027863  0.686636  0.650258  0.458357  0.381268  0.237465  -0.206946  0.756768  0.965575  0.065767  -0.494003  0.200110  0.361553  0.281594  0.901364  0.124485  -0.457381  0.020356  -0.594714  0.751945  -0.660268  -0.701956  0.444197  0.383038  0.113620  0.244301  0.992920  0.999878  0.196387  0.027863  0.050386  -0.908628  0.665273  0.785333  0.102206  -0.486007  -0.989319  0.866573  0.634999  -0.800348  -0.738334  0.708975  -0.236793  0.524644  -0.869503  -0.346904  -0.967650  -0.849788  -0.260353  -0.987487  -0.539781  0.149205  0.492904  -0.290628  -0.121189  -0.770501  0.653981  -0.210486  -0.360271  0.868587  0.194311  0.128758  0.745415  0.169530  -0.527207  -0.356792  -0.531846  0.253578  0.310831  0.315653  0.520859  -0.000763  0.022980  -0.648915  -0.160253  -0.058016  0.968749  0.774041  -0.955687  -0.853450  -0.814814  -0.221229  -0.365642  0.864581  0.659167  0.141512  -0.017123  -0.210608  0.839473  0.043916  -0.774773  0.721915  -0.164159  0.505661  0.991455  -0.542344  -0.939634  -0.069308  -0.763237  -0.289102  -0.319498  0.887936  -0.959166  0.884518  0.562426  0.553331  0.552538  0.501450  0.228248  -0.911901  -0.894107  0.076250  0.361862  -0.762867  -0.434352  0.463151  -0.339824  -0.304605  0.019562  0.822932  0.889279  0.849910  0.722648  0.140416  0.879452  0.383526  -0.386700  0.981811  -0.149754  0.880612  0.209388  -0.017914  -0.668752  0.449202  -0.902097  -0.361398  0.008904  -0.556860  -0.964981  -0.696411  0.063119  -0.368385  0.730165  0.153265  -0.274193  -0.993106  -0.729410  -0.390899  0.097140  -0.998413  0.531358  -0.847224  0.835139  0.612110  -0.582507  -0.220416  -0.091872  0.562330  0.733691  0.815785  0.062894  0.263661  -0.517206  0.239707  0.277637  0.418479  0.886862  0.158214  -0.678795  -0.262543  0.757186  0.628615  0.535445  0.934387  0.681508  -0.753283  -0.763665  -0.949217  0.885128  -0.119358  -0.594348  0.275002  -0.604602  -0.323385  0.558889  0.335493  0.900954  -0.693751  0.243219  -0.651314  -0.169948  -0.855680  -0.224096  0.519721  0.524973  0.696813  0.415171  -0.134375  0.047445  0.350708  -0.805763  -0.413455  -0.630759  -0.541143  0.208935  -0.928336  0.958068  -0.332560  0.962035  0.054842  -0.888607  0.150247  -0.138595  -0.642337  -0.159456  -0.687430  -0.387922  -0.552763  -0.886737  -0.451302  0.186149  0.699852  -0.369118  0.136894  0.835703  0.476548  -0.973632  0.559507  0.272636  -0.823424  -0.785631  -0.013550  0.135746  -0.152379  -0.958800  0.334391  0.957579  -0.159337  -0.848628  -0.292594  0.688377  -0.713750  0.850182  0.190194  0.433161  -0.614317  0.262748  -0.898819  -0.441854  0.091159  0.197515  0.227825  0.685869  0.103042  0.288697  0.109730  0.903571  -0.334132  -0.928167  0.299694  -0.613086  0.562304  0.690725  -0.514084  0.761650  -0.017379  0.126011  0.572714  -0.892068  0.550848  -0.018158  -0.365175  -0.124735  0.301286  -0.789649  0.852307  -0.949425  -0.597401  0.482580  0.066845  -0.366980  -0.991654  0.820176  0.373223  -0.450739  0.575567  -0.903916  -0.601402  -0.537101  0.094333  -0.948668  -0.712210  0.075167  -0.228934  -0.087069  0.760563  -0.891038  -0.093894  -0.632076  0.517747  -0.234197  -0.255646  -0.698884  -0.320332  -0.012461  -0.410400  -0.278063  0.115047  0.393645  -0.078284  -0.265366  -0.593722  0.991515  -0.692916  -0.228164  -0.091728  -0.577441  0.653188  0.794488  0.405316  -0.133702  0.410260  -0.425520  -0.012505  -0.595478  -0.007082  -0.338929  -0.119864  -0.946746  -0.119954  -0.410926  -0.365770  -1.009727  0.075259  0.678024  0.556519  0.230637  0.091345  0.348450  0.949262  -0.038917  0.923325  0.426770  0.304727  0.480392  0.810907  0.105258  -0.210974  -0.237465  0.591113  -0.611438  -0.419195  -0.825946  -0.178412  -0.319528  -0.128604  -0.879670  -0.106652  -0.033423  -0.879661  0.569273  -0.732381  0.238712  0.605036  -0.192055  -0.561739  0.711862  0.535352  -0.327290  -0.785878  -0.831247  -0.545824  0.025300  -0.167333  0.159825  -0.003815  0.837458  -0.148778  -0.569323  0.154980  0.846163  0.133365  0.216239  -0.603778  0.243167  -0.097878  0.632617  -0.378176  0.148499  -0.000687  0.285645  0.889345  -0.756160  -0.448033  -0.936746  -0.969296  -0.124813  -0.662440  -0.595913  0.246071  -0.959960  0.816523  0.526658  0.734123  -0.270058  -0.008087  0.143712  -0.158689  0.619777  -0.638623  -0.496718  0.078059  -0.317245  0.399273  -0.126109  0.521359  -0.078859  -0.911461  -0.008890  0.826641  -0.113442  0.251011  -0.538249  -0.437202  0.611289  1.046155  -0.095161  -0.520206  -0.587774  0.685915  -0.067660  0.314005  -0.967528  -0.343181  -0.666189  1.009132  1.022926  0.092069  0.718583  -0.843224  0.112875  0.724074  0.377237  -0.164589  0.230240  0.465475  0.391231  -0.435980  0.707906  0.242125  -0.095982  0.362349  0.818836  0.165901  -0.658227  -0.636298  -0.288387  0.258839  0.827876  -0.297220  -0.113559  0.295755  -0.970153  -0.587024  0.117015  0.864126  0.687128  -0.511555  0.586174  0.275004  -0.462138  -0.519618  -0.471208  0.071039  0.507289  0.648370  -0.952481  0.568644  0.982670  -0.643113  -0.924650  0.789182  0.421213  -0.247646  -0.184656  0.553514  -0.807489  0.859554  -0.277749  0.694388  0.643056  0.564440  -0.588733  0.320737  0.641491  0.349408  0.576728  0.048028  -0.128200  0.522243  0.090767  0.468025  -0.423812  0.199718  0.740138  -0.027178  0.621064  0.940843  -0.112682  0.784329  0.166604  0.409199  0.917820  0.545091  0.014802  0.044771  -0.918577  0.258583  -0.135044  0.635304  -0.452864  0.154662  0.212948  -0.041535  0.960805  0.506834  -0.147423  -0.196927  0.342658  -0.548550  0.548536  -0.658027  -0.338659  0.138840  -0.770722  -0.954180  -0.324115  -0.490184  -0.310348  -0.082689  0.797281  0.560289  -0.114719  -0.209815  0.458052  0.239540  -0.257973  -0.912717  -0.687307  -0.634035  -0.765147  -0.729621  -0.106891  -0.828423  0.585596  0.665146  0.028107  0.101008  -0.800102  0.659565  -0.592175  0.052291  0.909576  0.687869  0.750966  0.073223  0.047146  -0.494323  -0.131833  0.472030  -0.858577  0.215491  -0.902646  -0.912046  -0.637684  0.334697  -0.564877  0.906638  0.684495  -0.160635  0.091427  -0.304762  0.625374  -0.562707  -0.867546  0.528081  -0.677620  0.772206  -0.669355  0.053632  0.746399  -0.026045  -0.483242  -0.877492  -0.737484  -0.205838  -0.787774  0.907102  0.999817  -0.619251  0.688955  -0.875057  0.593982  -0.719718  0.673137  0.967402  -0.928542  -1.009570  -0.569038  0.248431  0.339756  0.365651  -0.177598  0.469722  0.586185  -0.139610  -0.352504  0.024208  0.339741  -0.678204  0.220773  0.838006  -0.450574  0.614438  0.142491  0.643056  0.114475  -0.638234  -0.108310  0.716300  0.311014  0.386517  -0.609311  0.320056  0.047884  -0.275855  0.316541  0.517297  0.861297  0.819364  -0.104572  0.476580  0.598917  -0.251466  -0.282342  0.634697  -0.963093  -0.694073  -0.338360  -0.326058  -0.328288  0.357980  0.795770  0.384808  -0.001068  -0.265542  0.628773  -0.861446  0.546007  0.969115  0.378136  -0.851805  -0.438244  0.396801  1.007258  -0.565589  -0.284938  -0.894204  -0.537189  -0.570611  -0.134498  0.857790  0.049092  0.419498  -0.563380  0.174844  -0.148229  0.526108  -0.831355  0.595597  0.956420  0.106906  -0.251808  -0.841731  0.089084  0.324076  0.005036  0.400861  0.083886  -0.346181  -0.196939  -0.679365  -0.837006  -0.611420  -0.418387  -0.836792  0.344346  0.439021  0.276958  0.221176  0.647475  -0.992542  0.569694  0.350815  0.977384  -0.656028  -0.644980  0.757468  0.937559  0.149937  -0.500595  0.743767  -0.626453  0.671987  -0.615955  -0.086764  -0.132420  -0.235389  0.619098  -0.211799  -0.498629  -0.128692  -0.641972  0.101710  -0.592097  0.240570  0.593363  0.741847  0.056218  -0.150148  0.616782  0.825556  -0.936033  0.328654  0.625050  0.374004  -0.514512  -0.741508  -0.931211  -0.106845  0.723685  -0.886349  -0.076693  0.683218  0.453719  -0.874295  -0.398084  -0.109653  0.703495  -0.612554  0.290606  -0.814880  -0.313744  0.021655  -0.643738  0.271862  -0.812034  -0.074340  0.065984  -0.821345  0.710807  0.843989  -0.010529  -0.282571  0.640675  -0.252113  -0.799005  0.301370  0.268654  0.619190  -0.362590  0.892148  -0.355754  0.505844  -0.434187  -0.545152  -0.427778  -0.106967  -0.167455  -0.454695  0.101108  -0.512558  0.759941  -0.130345  -0.906064  0.755730  -0.218970  -0.370586  -0.556749  0.529099  0.875729  0.464095  0.493210  0.987182  -0.130345  0.804010  0.231117  -0.667348  0.659108  -0.554369  -0.188635  0.470931  0.424116  0.162389  0.973388  -0.995422  0.892392  0.162755  -0.082858  -0.141453  -0.283547  0.208594  0.197729  -0.155065  -0.973083  -0.793695  0.202124  -0.516709  -0.776666  -0.916807  -0.229225  -0.613697  -0.933592  0.761162  -0.474288  0.524644  0.133396  -0.959349  -0.531297  0.683218  0.699088  -0.792352  0.410871  0.421674  -0.894833  -0.824702  0.797418  0.850826  -0.319254  -0.026582  0.488998  0.537950  -0.724845  0.398236  0.062716  -0.145909  -0.532151  0.634632  -0.804559  0.074862  0.515427  0.663625  0.691031  -0.452803  0.100070  0.267678  -0.284951  0.236183  0.941282  0.445601  0.799249  0.962035  0.333048  -0.949156  0.177099  0.641896  -0.330546  0.455098  0.012553  -0.155177  -0.981435  0.115818  0.100620  -0.007782  0.825617  -0.336406  -0.451765  0.458846  -0.248878  -0.350871  0.090121  0.981933  0.802240  -0.564379  -0.490768  -0.403790  0.723258  -0.756157  0.780511  -0.535936  0.766533  0.099338  -0.519089  0.884799  -0.123679  0.497121  -0.962342  -0.130346  0.424729  -0.371198  0.338298  -0.639515  -0.683157  -0.118442  -0.622303  0.844966  0.997070  0.616504  -0.681143  0.165380  0.857662  -0.192846  0.714774  -0.781365  -0.458785  -0.473434  0.343120  -0.319681  0.995056  0.032381  0.300552  0.137939  0.419424  0.179301  -0.404452  0.786020  1.005676  -0.853960  0.712066  -0.628206  -0.023759  -0.669897  0.290506  0.318094  0.282754  0.624500  0.758110  0.282144  0.731498  0.933270  0.853556  -0.958099  -0.921804  0.725463  0.707763  0.346819  0.520546  0.119969  0.145516  -0.469036  0.361905  1.048876  -0.444145  0.754210  1.028583  -0.146684  -0.050876  0.396871  0.599185  0.650149  0.762139  -0.939573  -0.763604  -0.735893  -0.791681  -0.789178  0.946837  -0.236748  0.506603  0.066587  -0.712098  -0.655183  0.436800  0.712607  0.056357  0.126413  -0.446305  0.591309  -0.151664  -0.470225  0.617848  0.452025  -0.592373  0.633624  -0.336212  0.156954  -0.242466  -0.692556  0.403167  -0.673357  0.991089  0.690237  0.543809  -0.687674  -0.528977  0.285197  -0.707223  0.103795  -0.348359  0.769061  0.641738  0.491988  0.287223  -0.296794  -0.775489  0.459031  0.655753  -0.277386  0.507780  0.590120  -0.161642  1.035993  0.362570  -0.900581  -0.020685  -0.783227  -0.396619  0.078785  0.641041  0.001312  -0.676565  0.346233  -0.284158  -0.884540  -0.720674  -0.865107  0.221223  0.107374  -0.685078  0.645484  0.106757  -0.746416  -0.837963  0.480169  -0.506737  0.803754  1.087335  0.933846  -0.821827  -0.735162  0.583902  -0.484624  -0.871179  0.812711  0.632391  0.000963  -0.312601  -0.345683  0.296670  0.719434  -0.412519  0.295419  0.085798  0.120954  -0.328529  -0.364967  -0.200452  0.073307  -0.582025  -0.178080  -0.610244  -0.068172  -0.837432  0.724142  -0.343870  -0.609196  -0.820565  0.539288  0.666443  0.410356  0.939474  0.591235  0.642550  -0.781121  0.908567  0.602100  -0.259194  -0.838291  -0.974120  0.429330  0.237612  0.732438  0.957188  -0.368245  0.776011  0.720452  -0.904515  0.302073  -0.851576  0.242542  -0.886402  -0.700747  -0.223174  0.700378  -0.810595  0.825349  -0.504811  -0.811562  -0.306829  -0.106942  -0.481613  0.774590  -0.905454  -0.159276  -0.431501  0.231300  0.469100  0.798330  0.656716  0.044392  -0.069722  0.211442  -0.152881  -0.573378  -0.504222  0.587941  0.483635  -0.181328  -0.549402  0.967183  -0.326877  0.246055  -0.151810  -0.565050  -0.022107  -0.676478  -0.405619  -0.695914  0.113193  0.472335  0.081759  -0.944700  0.141758  -0.378094  -0.319071  0.867118  -0.231182  -0.560484  -0.556562  0.942223  -0.860508  -0.203557  -0.249590  -0.080033  -0.696842  0.645224  -0.047014  0.592900  0.767556  0.606302  -0.480830  -0.235268  -0.060816  -0.651094  0.330914  0.496261  0.207617  -0.436811  -0.473617  0.050081  0.730766  0.459822  -0.619922  -0.951174  -0.368454  -0.111069  0.195427  -0.269483  -0.440451  0.381631  -0.093906  -0.248541  -0.097584  0.936130  0.798199  0.090754  0.739186  0.711862  -0.210143  0.497156  0.282940  -0.201501  -0.518870  0.576952  0.115574  -0.661061  -0.146947  -0.348735  -0.445479  0.992981  -0.893124  0.870292  0.220492  0.785085  -0.953999  0.035866  -0.051329  0.161721  -0.465747  0.627041  -0.829944  1.059542  -0.163385  0.760484  0.228976  -0.193496  -0.849226  -0.176039  -0.163401  0.673229  0.485285  -0.299095  0.345761  -0.170683  0.817499  -0.229225  0.341533  0.644765  -0.234046  -0.906923  -0.176615  0.561893  -0.115839  -0.338735  -0.686287  -0.295331  0.836447  -0.711023  -0.085764  0.458893  -0.462627  -0.397049  0.424231  0.144767  0.018029  0.784530  0.381459  -0.052028  -0.195071  -0.055253  0.301448  -0.024866  0.119114  -0.683218  -0.653493  0.712027  0.282083  -0.518662  0.442484  0.168022  -0.166993  0.070913  -0.384445  0.744347  0.573457  0.361229  0.558576  -0.097339  0.706990  -0.906452  1.109675  0.659244  -0.171591  0.993290  -0.928482  0.664546  -0.834007  -0.439307  -0.515787  -0.981445  -0.497238  -0.360027  -0.237098  0.879452  0.807489  0.990539  0.140294  -0.194351  -0.068089  -0.036685  0.034670  -0.721095  -0.037902  0.905229  0.429107  -0.261576  -0.443059  -0.799785  0.479716  1.088358  -0.756166  0.773222  -0.239768  -0.287224  1.001236  1.002100  0.829244  0.744621  0.785699  0.201941  -0.533677  -0.262246  -0.083712  -0.157079  -0.644765  -0.103001  -0.918099  -0.373243  0.562716  0.098466  -0.853071  -0.405446  0.668283  0.189399  0.831382  -0.763898  0.699409  -0.698694  0.183844  0.033384  0.868174  0.650982  0.861390  0.690273  -0.609083  0.759209  -0.752495  0.154393  -0.971801  0.493759  0.225868  0.474654  0.899594  0.566693  0.142204  -0.317486  0.214188  0.281695  -0.165529  -0.727709  -0.676473  0.380248  0.777530  0.881600  -0.224886  -0.504897  0.833490  -0.805759  -0.937293  0.302270  -0.941644  -0.969934  0.149047  -0.450911  0.822260  0.515427  -0.063814  0.058504  -0.119358  0.818598  0.881642  0.833116  -0.655842  -0.575570  -0.629503  -0.361881  0.773507  0.498819  -0.729881  -0.109262  0.328819  0.919447  -0.117266  0.720129  0.560852  -0.009497  0.005043  0.099249  0.881786  0.395378  -0.167028  -0.046724  0.526719  0.631336  -0.040986  0.702689  0.337260  0.699332  0.233917  -0.408668  -0.436008  -0.507861  -0.552382  -0.721342  0.340233  -0.846707  1.064619  0.395067  -0.573603  -0.518394  -0.757886  1.008704  -0.274802  0.399864  0.171772  0.583822  -0.124810  -0.384431  0.728874  0.044832  0.566698  -0.389264  -0.406171  0.465377  -0.112461  -0.986267  -0.046487  -0.218441  -0.900176  0.882650  0.008070  0.849932  0.324202  0.791248  -0.560488  -0.259179  -0.418282  0.727754  -0.798217  0.083613  -0.958158  -0.288207  0.417984  0.313192  -0.015496  -0.839701  -0.338054  -0.358745  -0.445296  0.419477  0.532456  -0.495468  -0.642506  0.384197  -0.127392  -0.214043  -0.081291  0.553476  -0.412714  0.924483  0.975493  -0.238620  -0.369718  0.800656  -0.665143  -0.822622  -0.460193  0.758326  -0.270589  0.198488  -0.497810  -0.791581  0.164808  0.883741  -0.492538  -0.368267  -0.720084  -0.677786  0.084994  0.576098  -0.580126  0.971557  -0.034181  -0.652852  -0.794505  -0.541295  1.027862  -0.592172  0.561128  -0.303622  0.079961  0.741975  0.157147  0.893759  0.354555  0.109417  -0.826155  -0.625221  0.206352  -0.435636  0.062549  -0.942914  0.990906  0.307352  0.465316  0.360149  0.498276  0.829707  -0.043245  0.136082  0.141942  -0.183874  0.737607  -0.013332  -0.615004  1.001752  0.307186  0.594774  0.097658  0.332158  -0.887327  0.734034  0.393936  0.736170  -0.710773  -0.743522  0.410260  -0.924436  -0.082492  0.224708  -0.236061  -0.116123  -0.049104  -0.449263  -0.894589  -0.891903  0.911252  -0.366314  -0.625233  0.504079  0.728207  -0.076660  -0.660599  -0.654622  0.124664  0.273991  0.956963  0.408363  -0.746273  0.646690  -0.819785  -0.809287  0.324476  0.434431  -0.415632  0.753777  -0.691214  0.691580  0.687613  -0.597461  0.740898  0.497909  0.246132  -0.061434  -0.935789  -0.965514  0.214087  -0.991577  -0.187597  0.279763  -0.081088  -0.158483  0.661672  0.112217  0.003388  0.674917  -0.594226  0.636036  0.698904  0.182165  0.919065  -0.458480  0.993957  0.219153  0.170446  -0.686453  0.259377  -0.802179  -0.649342  0.099765  0.893063  0.402264  0.175085  -0.948363  -0.453352  0.557909  -0.574816  -0.048982  -0.502915  0.967834  0.790460  -0.066378  -0.275124  0.527573  -0.926450  -0.876827  -0.738090  0.931272  -0.178137  -0.011750  0.371563  -0.617969  0.446577  0.233985  -0.876949  -0.881405  -0.107395  0.041536  0.922971  -0.929380  0.922788  -0.532090  -0.433882  0.955992  0.076205  0.818232  -0.630970  -0.869076  -0.633595  -0.197241  0.947142  -0.491806  0.779412  0.293008  0.199316  0.852473  -0.364910  0.486007  -0.937437  0.768242  -0.124973  -0.707327  -0.402264  -0.308878  -0.662343  0.761284  -0.029756  -0.804071  0.084994  -0.652577  -0.111911  -0.066744  -0.157994  -0.154515  0.058992  -0.492477  -0.387432  0.792108  -0.770501  -0.390606  -0.467208  -0.845218  -0.630607  0.714161  0.025907  -0.881832  0.561571  -0.341411  0.319437  0.781182  0.163732  0.410932  -0.610096  -0.424726  -0.200354  -0.657582  -0.606311  0.219642  0.746940  -0.683035  0.650319  0.022614  -0.719657  -0.090854  0.237831  -0.655873  0.536119  0.063379  -0.734679  0.041035  0.470851  0.521573  0.885729  -0.362168  0.381390  0.232276  0.088839  0.231910  -0.156651  0.350688  -0.587817  -0.348186  0.136082  -0.353008  -0.496323  -0.075594  0.212256  -0.868709  0.728446  0.767815  -0.523118  -0.090121  0.803888  0.918799  -0.925515  -0.278770  0.589055  -0.808813  0.000955  0.219364  0.856389  -0.323407  0.197417  0.905873  0.683948  -0.068638  0.413495  -0.727531  -0.160009  -0.480575  0.888852  0.896115  -0.488510  -0.202415  -0.643042  -0.179533  0.660153  -0.515115  -0.123135  0.409397  -0.223903  -0.298761  1.057222  1.025782  -0.856028  1.006718  0.938544  0.539868  -0.445885  -0.517968  0.182106  -0.918889  -0.584272  0.848945  -0.612171  0.431196  0.520981  -0.201697  0.708304  0.606555  -0.536607  0.922619  0.354110  -0.176179  -0.496143  -1.020223  -0.977294  -0.128790  0.647039  -0.444672  -0.275375  -0.831309  -0.685184  -0.902039  0.979990  0.046645  -0.685573  -0.862525  0.479621  0.206907  0.276203  -0.370190  -0.293845  -0.743018  -0.582263  0.841426  0.811640  -0.702200  0.288369  0.044293  -0.679738  0.568298  0.431445  0.452018  0.693175  0.237562  0.694564  0.101163  -0.769111  0.292562  0.562091  -0.766163  0.207658  -0.293109  0.242458  0.495761  -0.161707  0.263657  0.652177  0.441330  -0.925839  -0.889706  0.111911  -0.026154  0.015717  -0.856990  0.595080  0.953116  -0.959305  0.264944  0.187613  0.547114  -0.892189  -0.927753  -0.357841  0.267273  0.266165  -0.173533  0.582052  0.976857  0.584859  0.957401  0.650469  -0.030558  0.129571  -0.684394  0.077454  0.225921  0.853694  0.258827  -0.454451  0.016694  -0.085055  0.196329  0.768914  -0.057179  -0.674822  0.507857  -0.019133  0.564120  0.475564  0.687571  0.789563  0.344449  -0.148192  -0.392167  -0.826210  0.333129  -0.968456  0.642514  0.896234  0.548254  0.910318  -0.309474  0.744118  -0.857808  -0.463257  -0.646352  0.439070  -0.216041  0.140355  0.325056  -0.191870  -0.965168  0.010142  0.941532  0.241336  0.015908  0.657708  0.758866  -0.025893  -0.857192  -0.634906  0.451732  0.888328  -0.765726  -0.193482  -0.992528  0.326428  0.908506  1.028110  -0.325401  -0.067359  0.847583  0.606006  -0.496445  -0.177526  0.239723  0.638844  0.171606  -0.665029  -0.291607  0.598373  0.237156  0.524023  0.712331  0.175515  -0.537870  0.895242  -0.209029  -0.040577  0.808189  0.196975  0.060765  -0.433995  -0.121205  -0.481048  0.417918  0.517225  0.095222  -0.002354  0.343730  -0.146947  0.130161  0.116855  -0.997620  0.909421  -0.804376  0.220557  0.784231  -0.642631  0.450298  -0.933598  -0.401570  -0.057571  -0.583780  0.109688  0.379340  1.044270  0.326326  -0.754626  -0.231817  -0.312404  -0.932009  -0.509327  0.957136  -0.942715  0.135925  0.296186  -0.018220  -0.040925  0.888180  0.204566  0.885006  -0.866573  -0.017548  0.260292  -0.867492  -0.094336  -0.962953  -0.428652  0.367191  -0.569305  -0.497842  0.260051  0.074310  0.670481  0.681566  0.206997  -0.711812  0.952664  0.640143  0.297430  -0.319933  -0.523159  -0.244474  0.431876  -0.557787  -0.590930  0.743461  0.925047  -0.843013  -0.862239  -0.855342  0.337932  0.937312  0.186862  -0.318464  -0.546819  0.443555  0.478558  0.877112  0.812976  0.572701  0.362208  -0.893857  -0.227429  0.900924  0.115256  0.614579  -0.107708  0.910560  0.247503  0.273499  -0.673844  0.279784  -0.419212  0.436928  0.434065  -0.782342  0.126499  -0.134129  -0.485031  0.177035  -0.224100  0.127717  -0.917672  0.948848  0.170390  0.259766  -0.903941  -0.787568  0.307543  0.103676  0.209758  -0.763300  -0.458216  -0.207060  0.874525  0.793194  0.424624  -0.802216  -0.482865  0.760207  0.984762  -0.486012  -0.136631  -0.634327  -0.879818  0.332987  0.483688  0.011078  0.455608  0.195407  0.461427  0.356822  0.435227  0.673760  0.403133  -0.598309  0.038230  -0.725179  0.901676  0.698268  -0.044247  -0.260746  -0.642988  -0.013256  0.147034  0.448614  -0.836819  -0.330673  0.586225  0.109043  0.719291  0.354961  -0.960021  -0.765007  -0.179418  -0.210425  -0.006439  0.186072  0.818434  -0.348531  -0.518823  0.983675  0.445775  0.065453  0.466049  -0.842667  -0.387922  0.944951  0.605492  0.970680  0.941817  -0.630106  0.605175  0.266883  -0.913142  0.783080  -0.853139  0.670583  0.456282  0.422468  0.373089  0.515732  0.478500  -0.703848  0.091281  0.864383  -0.604088  -0.502344  0.949847  0.281919  0.939875  -0.032259  0.080089  0.077581  0.543844  0.772741  0.058641  -0.416347  -0.620256  0.076722  0.385126  -0.094336  -0.502318  0.683696  0.523107  -0.184729  -0.335551  -0.523362  -0.642018  0.567797  0.954344  -0.984191  0.361919  -0.850078  -0.916587  -0.719233  -0.332184  0.371206  -0.946521  -0.559714  -0.501562  0.627721  -0.243385  0.940997  0.959960  -0.130162  -0.052988  0.861405  0.139437  -0.646489  -0.458738  -0.386466  -0.139678  -0.501083  -0.692495  -0.866756  0.627125  0.055635  0.569994  0.036592  -0.619678  0.804512  -0.840733  0.507923  -0.012823  0.334655  0.086207  -0.024733  1.031128  0.428320  -0.342531  -0.300108  -0.008373  0.529265  -0.637005  0.458549  0.573697  -0.792374  0.409128  0.048417  0.615467  -0.309061  -0.550890  0.286294  -0.756645  -0.444929  -0.695853  0.303995  0.664113  0.205728  0.655667  0.506702  -0.299798  0.615827  -0.167949  0.949947  -0.596637  -0.045812  0.428113  -0.795391  -0.680147  0.030592  0.263163  -0.712971  -0.452157  0.952426  -0.770480  0.683507  -0.645497  -0.259865  -0.095126  0.901852  0.069247  -0.803461  -0.387493  0.911313  0.553758  0.476303  0.805140  0.857887  -0.781737  -0.940870  0.012741  0.947331  0.352426  -0.180306  0.131004  -0.459975  -0.375020  -0.704735  0.282340  0.791713  -0.553479  0.849137  0.324619  0.516397  0.252663  0.619861  0.257912  -0.278115  -0.594897  -0.500351  0.673391  -0.888485  -0.067030  0.083304  -0.082826  0.383337  -0.354533  -0.766042  -0.644187  0.467286  -0.340865  0.985766  0.144260  -0.463000  -0.371679  0.706789  -0.588595  0.402391  0.502481  -0.555169  -0.854617  0.713547  0.241066  -0.761040  -0.325175  0.565966  0.834895  -0.413068  0.496872  -0.259682  0.682078  -0.871803  -0.694979  -0.562106  0.472295  0.112580  -0.463752  -0.386770  0.126278  -0.643045  0.922050  -0.060550  0.170946  -0.202678  -0.297901  0.399569  -0.783081  0.186736  -0.583490  0.953117  0.734794  -0.992615  -0.039705  0.917356  0.215674  -0.036042  0.335063  -0.263894  0.902829  -0.446150  -0.634692  0.983765  0.930115  -0.189379  0.676527  -0.344429  0.613347  0.586533  0.940402  -0.326785  -0.440131  0.896885  -0.371708  -0.999512  -0.252052  -0.943724  0.884579  -0.076083  0.880917  -0.157506  0.287271  -0.517075  -0.249916  0.053072  0.829829  -0.554491  -0.247902  0.397871  0.684745  -0.611256  0.871032  -0.223058  -0.405864  -0.240821  -0.251548  -0.681737  0.004136  0.723357  0.408284  0.492271  0.010384  -0.419965  -0.859188  0.557543  0.118992  0.674673  0.263161  -0.195593  -0.959655  0.412641  0.077853  -0.330973  0.337138  -0.598621  -0.177709  0.260109  -0.780755  0.402142  -0.961669  0.476852  -0.584277  -0.051790  -0.033479  -0.924986  -0.773186  0.436323  0.523240  -0.013764  0.815790  0.502731  0.421918  0.203894  -0.199194  0.496994  0.001373  -0.451704  -0.789727  0.866146  0.323954  0.622852  0.863948  0.261269  0.105014  0.274270  0.242286  -0.820429  0.037874  0.869137  -0.093478  -0.046297  0.074923  0.699393  -0.467513  0.901242  0.228980  -0.170507  -0.380718  -0.552721  0.456038  0.697073  0.937376  0.032075  0.182958  -0.220008  0.776299  -0.384564  -0.957762  -0.357158  0.056673  0.593005  -0.623951  -0.325724  0.367534  -0.066744  0.072359  0.828608  0.991516  0.351299  0.295694  0.683401  0.981933  0.329264  0.674856  0.126499  0.351848  0.797174  0.510361  -0.015778  -0.559923  -0.713248  0.563524  0.903134  0.514634  -0.629872  -0.009613  0.798883  0.677236  0.195898  0.982605  -0.816584  0.131382  -0.064119  -0.322184  0.683828  0.875790  -0.045503  0.902219  -0.935057  -0.113865  -0.500030  -0.704531  0.056967  -0.163499  -0.179785  0.463546  0.381756  -0.496750  -0.752251  0.475204  -0.954588  0.670095  0.511826  -0.325602  0.618580  0.005097  -0.355571  0.961913  0.407575  0.562731  -0.439070  0.354167  -0.925169  -0.780084  0.037874  0.300089  0.926344  -0.986857  0.901499  -0.669008  -0.719668  0.541761  0.336669  0.596240  0.953185  -0.779229  0.780633  0.879086  -0.348857  0.928587  0.927488  0.600635  0.082064  0.602832  -0.257912  0.429792  0.420148  0.178747  -0.955199  -0.972411  -0.684500  0.804376  -0.904775  -0.499443  0.772574  -0.591292  -0.892923  -0.856650  -0.698018  0.780146  -0.527069  -0.098644  0.327804  0.886290  -0.491315  0.499374  0.827570  -0.872555  -0.372967  -0.828181  0.683340  0.882199  -0.430362  0.172745  -0.277891  -0.156272  -0.340665  -0.717203  -0.553540  0.090289  0.780950  0.940220  -0.195426  -0.893975  0.293913  0.641252  0.400311  -0.831654  0.396933  0.848190  0.164933  -0.594452  0.354093  0.977905  -0.367351  -0.857540  0.834101  0.165441  0.745170  0.908628  0.834997  0.401827  0.786116  -0.110824  -0.058087  -0.693651  0.177181  0.320082  -0.976057  0.503881  -0.584925  -0.767184  -0.689196  0.283053  -0.274736  0.436773  0.561008  -0.436513  0.341899  -0.838817  0.316674  0.990902  -0.501826  -0.612781  0.236549  0.731376  -0.823908  -0.118686  -0.840928  -0.450648  -0.690246  -0.833699  0.950078  -0.552532  -0.158792  0.983288  0.044306  0.909821  -0.844419  -0.772108  0.582281  0.155201  0.541784  -0.805948  -0.134349  -0.724142  0.369712  -0.901651  -0.483881  0.231046  -0.061633  0.363689  0.085238  -0.152989  0.855892  0.727042  0.068136  -0.864378  -0.508111  -0.068972  0.399752  -0.559391  0.764775  0.048078  0.610194  -1.015937  0.262663  -0.867523  0.584593  0.681076  0.042703  -0.885999  -0.779707  0.097333  -0.347373  0.012538  0.881301  -0.719490  0.823221  0.701285  0.827143  0.166356  0.834185  0.243995  0.308519  0.563846  -0.670543  0.554326  0.711558  0.059186  -0.243495  0.586153  -0.468112  -0.560638  0.716028  0.579157  0.299777  -0.441008  -0.907570  -0.048026  -0.338435  -0.849186  -0.366689  -0.085397  0.014830  0.188080  0.276894  0.121006  -0.038179  0.201514  -0.452048  0.234718  0.170706  0.784617  -0.677502  0.388583  0.498677  -0.878510  -0.331605  -0.488278  -0.827624  0.973572  -0.493617  -0.861150  0.508331  -0.179417  0.517868  -0.513593  -0.937404  -0.629717  -0.184378  -0.664433  0.452134  -0.185705  0.515976  0.763970  -0.192358  -0.226356  0.204627  0.064363  -0.391879  0.863864  0.650540  -0.086731  -0.655808  -0.644483  0.266925  0.833807  -0.866382  0.188035  -0.120657  -0.815899  0.383455  -0.658077  -0.955242  -0.480612  0.532954  -0.031090  -0.819839  0.718469  -0.490280  0.753655  0.685659  -0.680593  0.865963  0.670949  0.558214  0.082247  -0.325593  0.241929  0.002449  0.826775  -0.560815  0.893757  -0.224043  -0.709911  0.098319  0.775141  -1.004609  -0.209002  -0.124647  -0.634445  -0.070865  0.876236  -0.464515  0.520419  -0.764864  -0.122257  -0.191565  -0.101169  -0.987732  -0.607898  0.469954  -0.548997  0.265603  0.344279  0.153609  0.754823  -0.626050  -0.319203  0.732498  0.739699  0.755547  -0.327311  0.160245  0.705858  0.075460  -0.762044  0.309244  0.018907  -0.398181  -0.053823  -0.370261  -0.834012  -0.813613  -0.908929  -0.245705  -0.504135  -0.633290  0.544908  -0.593066  0.325541  -0.027802  0.073641  0.898505  -0.720136  -0.153102  -0.837578  0.534188  -0.168585  0.101520  0.718808  0.185420  0.146611  0.099418  0.212304  -0.402626  -0.487643  0.465742  0.047367  0.033562  -0.324046  0.512530  0.141723  -0.041446  0.651141  0.458594  -0.545518  0.199927  -0.935789  -0.647755  0.297403  -0.321564  0.956978  -0.348647  0.583671  -0.242178  -0.216969  -0.785633  0.908873  -0.672968  0.517471  -0.622214  -0.423021  -0.689442  -0.585126  0.242079  0.375581  0.475458  -0.589266  -0.890340  0.981718  -0.776942  0.282600  0.863575  -0.381146  -0.262551  -0.144017  0.275674  -0.903867  0.180273  -0.061180  -0.309950  0.190396  -0.053852  0.228735  -0.874502  0.116607  0.082132  0.342843  0.747681  0.802381  0.931597  0.321709  -0.362868  -0.007541  -0.608355  0.911207  -0.131050  0.208013  0.656843  -0.688230  0.025849  -0.948424  -0.061617  0.064363  0.291299  -0.095431  0.857479  -0.403912  0.661567  0.396388  -0.970430  0.598885  -0.583821  -0.428208  0.685043  -0.507041  -0.865125  -0.936547  -0.927428  0.180937  -0.452785  0.815639  0.709768  -0.652300  0.444760  0.981087  -0.229346  -0.807367  0.468307  0.403241  -0.860714  0.815424  0.613758  0.300150  0.311869  -0.882382  -0.983313  0.850276  0.279608  -0.496338  -0.769896  -0.931339  0.161036  -0.647931  0.093441  0.150039  -0.655570  0.773472  -0.004605  -0.630991  -0.189197  0.363895  0.805298  0.691288  -0.829684  0.648876  -0.603809  0.945250  -0.107944  0.354717  -0.197790  -0.282022  -0.098422  0.439985  -0.088122  0.150976  0.521868  -0.670777  -0.156189  0.635521  0.040875  0.059795  -0.899071  0.159729  -0.946715  0.336570  0.087224  -0.124075  0.352580  0.916468  -0.699818  -0.072773  -0.487816  -0.467269  0.839900  0.854793  -0.140782  0.111667  -0.682485  -0.471541  -0.743522  0.430679  0.319822  -0.735940  -0.024435  -0.542416  0.495603  -0.560545  0.911672  0.480923  0.021569  -0.268653  -0.761876  0.508932  -0.926298  -0.133395  -0.889271  -0.645165  -0.103448  -0.950414  -0.570094  -0.235145  0.567064  -0.761834  -0.505600  0.408185  0.145970  -0.083895  -0.607532  0.372144  0.705362  -0.318759  -0.616407  -0.693825  -0.852530  0.628321  -0.442216  0.057154  0.497966  0.148335  -0.217468  0.105139  -0.384173  0.823334  -0.129085  0.836695  -0.645156  -0.070748  0.134334  0.305521  0.932920  0.329875  -0.804804  -0.250465  0.677236  0.996338  -0.889340  -0.600420  -0.098563  0.853006  -0.530068  0.963908  -0.250144  -0.232119  -0.026843  0.560541  -0.214579  -0.478610  -0.101542  -0.876062  -0.325330  -0.465931  -0.646007  -0.541637  0.948509  -0.797755  -0.647511  0.075716  -0.140721  -0.695730  -0.383343  0.634632  -0.976989  0.608325  -0.630848  0.256371  0.153978  0.265211  -0.193628  0.812423  -0.039680  0.792409  0.716600  0.112243  0.023605  -0.620974  0.667387  -0.373631  0.277428  -0.133512  -0.987254  0.466932  -0.674033  0.522109  0.307353  -0.222694  -0.869381  0.139317  -0.167943  -0.176916  -0.034272  0.220924  -0.684988  -0.229516  0.639957  -0.843611  0.750439  -0.671798  0.938301  -0.710993  0.926739  0.599369  0.570293  -0.513935  -0.905861  0.927285  0.554200  -0.595559  -0.780196  -0.084200  -0.480330  0.269510  0.416670  0.542344  0.193396  0.967528  -0.971252  -0.002411  -0.277932  -0.610462  0.663930  0.611072  0.657216  0.256780  -0.999545  0.728481  0.600435  -0.596403  -0.915701  0.070073  0.835363  -0.191378  0.222202  0.809439  0.559615  0.694445  -0.612964  -0.598682  0.360515  0.069674  -0.596484  0.353008  0.646901  -0.647023  0.427473  0.757439  0.712088  0.201147  0.115024  0.908872  0.880456  0.986966  0.217775  -0.263370  0.452017  0.293379  0.525130  0.703376  0.686651  -0.566449  -0.523915  0.192721  0.861565  0.773061  -0.821589  -0.995911  -0.554430  0.661733  -0.496078  0.168249  -0.386700  0.932127  -0.889706  -0.118076  -0.481735  0.145054  0.488205  -0.704825  0.844478  0.847591  0.201147  -0.894711  -0.663137  -0.706473  0.019379  -0.595264  -0.491928  0.575182  -0.223304  0.361187  0.848384  -0.757744  -0.237770  0.291788  -0.147740  0.472457  -0.540147  0.694998  -0.825983  -0.145665  0.448042  0.801263  0.224830  0.847285  0.272012  -0.793756  0.523179  -0.021699  -0.898618  -0.851558  0.112522  0.840876  -0.014924  0.993835  0.357280  0.956114  0.516648  0.489547  -0.569811  0.560411  0.722526  0.350932  -0.195837  -0.619068  0.984558  -0.258583  0.059725  0.462081  0.811335  -0.789178  0.321940  -0.894955  0.268593  -0.347636  -0.361187  -0.016327  0.883358  0.842097  0.613147  0.497665  -0.168126  0.122410  -0.399213  -0.572497  0.226905  0.793512  -0.211402  0.952391  -0.686514  0.773247  -0.537217  -0.906735  -0.611438  -0.910154  0.781854  0.645436  -0.744926  0.769036  -0.634571  -0.339396  -0.975768  -0.322733  0.012848  -0.456710  0.077487  -0.113742  0.861812  -0.177709  -0.998779  -0.882076  -0.697684  -0.339335  -0.685192  0.842121  -0.036324  -0.825716  -0.250465  0.536119  0.035554  0.568041  -0.947020  0.826594  0.393353  0.311014  -0.136692  0.812983  -0.423261  0.149510  -0.267373  0.398358  -0.802240  0.283425  -0.047212  -0.967833  -0.067232  0.610950  0.049043  -0.520066  0.470117  -0.834389  0.765466  0.193817  0.686202  -0.256155  -0.783913  0.715323  -0.611927  -0.069918  -0.561876  0.065951  0.065523  -0.598865  -0.559252  0.032868  0.572069  -0.336711  0.297647  -0.432478  0.546861  -0.680532  0.638295  0.466048  0.547410  -0.141697  -0.486507  0.020699  0.334541  0.067150  -0.569320  -0.778168  0.570644  0.090670  0.308274  0.002725  -0.627501  -0.693328  0.310792  0.007111  -0.331339  0.901608  0.240455  -0.960326  -0.591784  -0.637501  -0.753010  0.590232  -0.076513  -0.075515  0.917069  -0.774572  0.612609  -0.072030  -0.713747  -0.366465  -0.020569  -0.794736  -0.317613  -0.772475  0.028142  -0.083468  0.416536  0.687278  0.883193  0.031614  -0.100170  0.259865  0.544481  -0.725578  0.413739  -0.234779  0.132298  0.577868  -0.831015  0.908908  0.138194  0.661234  0.269833  -0.546274  -0.092574  -0.866004  -0.037524  -0.572534  -0.738424  -0.089165  -0.070152  -0.675540  -0.441964  0.513430  0.453590  0.920226  0.289171  0.685993  0.617518  0.379146  0.644196  -0.244606  -0.129917  0.632252  0.022248  0.837397  0.396709  -0.158420  -0.348368  0.747482  -0.763052  -1.044555  0.958035  -0.129694  -0.486576  0.565451  -0.442116  0.779054  -0.124422  -0.263240  0.582209  -0.168176  0.051017  -0.168442  -1.040570  -0.759486  0.067375  -0.488489  -0.726690  0.950621  0.235267  -0.569445  0.707327  -0.743156  0.570115  0.459518  0.083408  -0.475843  0.137967  0.937833  0.785755  0.625244  -0.249294  0.449421  -0.880184  -0.121175  0.845463  0.551428  -0.478017  -0.566411  0.893991  -0.725355  -1.001243  0.099717  0.116430  0.247766  -0.416744  0.172643  0.593921  0.838984  -0.647111  -0.268960  0.821196  -0.104672  -0.610520  -0.089294  0.413754  0.975053  -0.255464  -0.822554  0.917235  0.655989  -0.523419  0.554179  -0.220621  0.004098  0.257405  -0.283371  -0.768592  0.706823  -0.208176  -0.957690  -0.505640  -0.679794  -0.073275  -0.048006  -0.294778  0.527879  0.104194  -0.637135  0.218984  0.691899  -0.483037  0.343102  0.911191  0.698899  0.802873  0.383698  0.047143  -0.721676  0.291080  -0.085164  0.279049  -0.954107  -0.691190  0.265788  0.564464  0.497188  0.701774  0.827794  0.771190  -0.676931  0.334941  -0.838313  0.378826  0.782525  0.963988  0.568957  -0.705151  -0.740883  0.832529  0.245448  -0.657223  0.826895  -0.417216  0.444017  0.262488  -0.506514  0.211210  0.672078  -0.303307  -0.033613  -0.183498  0.221237  -0.082783  -0.574141  -0.782554  0.774756  -0.607715  0.357036  -0.424970  -0.807062  0.697928  -0.417341  0.303140  0.297830  -0.025077  0.303608  0.400997  -0.404208  0.702725  0.111854  -0.114266  -0.498725  0.332190  0.624737  -0.467107  -0.000970  -0.722886  0.639320  0.821271  0.096925  0.300184  -0.182354  0.677466  0.755991  -0.434492  -0.428083  0.363323  0.619007  -0.222022  0.076937  0.190954  0.799493  -0.857988  -0.718213  0.539429  0.445702  -0.920738  0.561148  -0.807199  0.931347  0.569316  -0.636230  0.493104  -0.770599  -0.565916  -0.753726  0.234296  -0.823262  -0.154563  -0.650673  -0.899600  -0.937864  0.304605  -0.685537  0.455611  0.784417  0.747978  0.389325  0.723502  -0.617176  -0.920429  -0.285156  0.578091  0.110699  -0.536899  -0.787819  -0.455406  0.792660  0.261373  -0.200999  0.675088  0.878691  0.565341  0.080264  -0.038134  0.695315  -0.825155  -0.320843  0.782485  0.566965  0.769708  0.115392  -0.390143  -0.241615  0.641652  0.694937  0.546129  -0.400983  -0.327759  -0.665416  0.173495  0.055992  0.892149  -0.662858  -0.598035  -0.283253  -0.123252  0.750548  -0.751768  0.036774  0.379393  0.286849  0.857370  -0.124017  -0.434776  0.192676  0.652625  0.526948  0.224159  -0.821527  -0.535289  -0.911802  -0.113559  -0.496872  -0.245277  -0.712027  0.045869  0.003977  -0.738276  0.917392  -0.205905  0.812571  0.155988  -0.972100  0.661741  0.576536  -0.152730  0.889425  -0.072032  0.417814  -0.851125  -0.156926  0.101510  -0.202019  0.240644  0.858257  -0.289432  0.694973  0.942564  0.791314  -0.921995  0.085055  0.363445  -0.073763  0.156285  -0.626148  -0.980694  0.213384  -0.606965  -0.833437  -0.570044  0.779585  -0.484730  0.041125  -0.300503  -0.134004  0.261662  -0.723803  -0.556876  0.647082  -0.244059  -0.955019  0.340633  -0.342237  0.588744  0.378227  -0.056734  -0.977477  -0.273293  0.982788  0.525864  0.711966  0.460616  -0.965026  0.652947  0.569404  -0.451687  0.187644  0.205708  0.400126  -0.370410  -0.023316  0.630823  -0.417483  0.360132  1.016983  -0.963692  -0.639269  -1.014590  0.487230  0.592522  0.934974  -0.747753  0.786962  -0.482589  -0.144078  0.664602  -0.461165  -0.302042  -0.173009  -0.236000  -0.450117  0.709264  0.885570  -0.918755  0.307674  -0.235190  0.851860  -0.893645  -0.489470  -0.077731  1.032976  -0.289321  -0.212794  0.397954  -0.336933  0.664442  0.410814  0.560511  -0.014579  0.999005  -0.337859  0.125523  -0.384198  0.800226  0.382000  0.929991  0.311441  -0.624866  0.702564  -0.296132  -0.878528  0.903177  -0.432195  0.280039  -0.798629  -0.196595  0.116765  0.017711  0.962345  0.902325  -0.808101  -0.174457  0.443900  0.661502  0.009171  -0.355572  0.392709  0.444044  -0.087924  -0.248512  -0.802728  -0.091586  -0.191931  -0.525864  0.989135  0.079318  -0.625296  0.341619  0.190738  -0.166934  -0.885203  0.778908  0.920720  -0.669119  -0.852055  -0.122868  0.883016  -0.789895  0.165725  -0.202283  -0.888765  0.187164  0.442442  -0.122409  0.621817  -0.300668  -0.268593  -0.762871  0.811945  0.142613  -0.007721  -0.102634  -0.118686  -0.352641  -0.254985  0.584813  -0.337135  -0.179967  0.130083  -0.870391  -0.116426  -0.826350  -0.133505  0.219236  -0.342963  0.062495  0.890368  -0.892243  0.511743  0.542949  0.480698  0.686578  0.323037  -0.818456  0.939879  0.996216  0.596851  -0.042390  -0.028108  0.884213  0.546800  -0.433454  -0.158344  -0.276869  0.200120  0.140240  0.150690  0.026086  0.576531  -0.224597  -0.008556  0.067451  -0.979181  0.493618  -0.334436  -0.028395  0.222012  -0.331852  0.736257  -0.034335  -0.160804  0.661325  0.474715  0.293802  -0.475387  -0.870296  -0.665212  -0.080660  0.784051  0.682180  -0.549467  0.753979  -0.527182  -0.458455  -0.333350  -0.309613  -0.254959  -0.493041  -0.567737  0.733790  0.753469  0.690801  0.692709  -0.099637  0.973997  -0.754755  -0.657135  0.552252  -0.486598  -0.619475  0.962401  -0.718986  0.051851  0.562181  -0.446028  -0.963500  0.135533  0.436384  -0.971435  0.903378  0.960574  -0.776112  0.897156  -0.208732  0.022244  0.009276  0.032976  -0.588005  -0.840607  -0.334286  0.004164  0.605379  0.060623  0.561876  -0.754631  0.425520  -0.026582  0.724357  -0.689871  0.969726  0.942503  -0.436750  0.902707  -0.178808  -0.370769  -0.607532  0.906674  -0.103057  -0.118438  0.606443  0.337569  -0.186438  0.087067  0.823235  0.372062  0.903511  0.164523  -0.311275  0.898234  0.670750  0.711888  0.796258  -0.213355  -0.356731  0.073336  0.333109  -0.745659  -0.663076  -0.294412  0.284646  -0.110019  0.854427  0.196692  -0.268227  0.634816  -0.181921  0.340373  0.309976  -0.467025  0.244667  0.638417  -0.141636  0.032929  -0.108188  0.510056  -0.957762  0.369854  0.359294  -0.760796  0.760857  0.593799  0.255898  -0.277017  -0.848262  0.804010  0.745842  -0.916746  0.006989  -0.846919  -0.213965  -0.796258  -0.589648  -0.816584  0.367901  -0.744072  0.410993  -0.942442  -0.925108  -0.724479  0.543626  0.246132  0.269631  0.851802  0.009797  0.235145  0.221473  -0.006684  -0.668386  0.815241  0.489364  0.231910  0.290017  0.515427  0.869747  -0.973327  0.961364  0.744255  -0.775933  -0.467635  0.664052  0.199927  0.497848  0.792535  -0.372417  -0.887204  0.243080  0.421552  -0.803034  -0.117527  0.957518  0.837580  -0.615162  -0.328532  0.552415  -0.891964  -0.416791  -0.480758  -0.737602  -0.528184  -0.751274  -0.462691  0.308573  0.598804  0.372600  0.749565  0.628040  0.650929  0.547777  -0.860836  0.982910  0.206336  0.447371  0.465682  -0.239967  0.109043  0.524583  -0.587024  -0.224586  0.307169  0.738186  -0.378297  0.382224  0.730135  0.187719  0.247108  0.279031  0.349223  0.252846  -0.637623  -0.916623  -0.761101  0.413312  0.177404  -0.606555  0.109775  0.198462  0.226417  -0.759758  -0.032807  0.296304  -0.666982  0.489486  0.203284  0.562487  0.833613  -0.587782  0.092608  -0.259917  -0.380759  0.810623  -0.172468  0.786932  -0.353191  -0.125095  0.016083  0.368816  0.223365  -0.801996  -0.170385  0.755486  0.054048  -0.684133  0.900632  0.507370  0.189062  -0.116733  0.847468  0.020112  0.688650  -0.021577  -0.340434  0.676120  0.516507  0.797050  0.957162  -0.732321  0.997816  0.887449  -0.996641  -1.006294  -0.890243  -0.194556  0.230997  0.070286  0.071627  -0.546190  -0.999268  -0.593066  -0.336589  -0.379559  -0.883847  0.891073  0.696853  -0.846199  -0.626756  -0.726490  0.836240  0.477581  -0.782966  -0.878738  0.598754  -0.415790  -0.350770  0.093680  -0.483861  -0.626605  0.096771  -0.099097  -0.534614  -0.856715  0.442606  0.090161  -0.925474  -0.293435  -0.890194  0.520981  -0.130772  0.746330  -0.651357  0.844441  0.442767  0.420061  0.086379  -0.482310  -0.798144  -0.691283  0.851305  0.494300  -0.888780  0.381471  -0.169509  -0.092024  -0.438133  0.674956  -0.552736  -0.740762  -0.709934  0.548753  -0.259361  0.849055  -0.446678  0.757717  -0.664663  0.865413  0.456648  0.071444  0.263466  0.972192  0.813811  0.941853  0.036605  0.292757  0.258393  -1.000876  0.874436  0.476537  0.208004  0.207328  -1.030556  0.071473  0.144002  -0.450075  -0.135964  -0.149782  -0.427552  -0.910196  -0.496410  0.828036  0.444174  -0.925178  0.321390  -0.360027  -0.569384  -0.232643  -0.213294  -0.814547  0.081914  -0.980813  -0.095030  -0.569522  -0.542005  0.726094  -0.717120  -0.657769  0.538066  -0.583313  0.119477  -1.028799  -0.517866  -0.377811  0.492820  -0.006890  0.446868  0.326067  0.633329  -0.451639  -0.270129  0.364900  -0.190100  -0.671133  -0.790704  0.010565  0.342937  0.686738  -0.002359  -0.126947  -0.646542  -0.992073  0.524141  -0.818883  0.452227  0.868952  -0.701334  0.505580  0.783149  -0.084544  0.704256  0.197511  0.527852  0.891327  -0.756403  -0.912347  -0.265330  0.212348  0.613653  -0.348247  -0.300821  0.275246  -0.351177  -0.506968  -0.418256  -0.358351  -0.072942  -0.721900  0.832331  -0.365005  -0.977535  0.252025  0.819745  0.403160  0.244980  -0.164015  0.866701  -0.478509  0.400225  0.008642  -0.666818  -0.400673  -0.107750  0.510975  -0.681451  -0.597996  0.612903  -0.418683  -0.034516  0.666433  0.838435  0.993408  -0.970214  0.872663  0.110476  -0.851895  -0.613124  0.567643  0.562316  -0.672985  -0.939470  -0.931127  -0.922761  -0.187850  0.465013  -0.570706  -0.567829  0.748362  0.054885  0.387594  -0.043407  0.803861  -0.778439  0.335551  0.943602  0.019929  -0.114475  0.616810  -0.398297  -0.378399  0.106052  -0.383235  -0.598085  0.455091  0.910987  0.957698  0.498716  -0.403917  -0.920770  0.942149  -0.892171  -0.834916  0.704138  0.708436  -0.427206  0.753439  -0.498877  0.193039  0.225485  0.274903  -0.397643  -0.216468  -0.300943  -0.158666  -0.003082  0.035920  0.643178  0.925352  -0.061861  -0.190907  -0.994703  -0.634908  0.225545  -0.821531  0.190540  0.647259  -0.113335  -0.681618  -0.940960  0.672099  -0.053362  -0.185842  -1.006601  0.209176  -0.441135  -0.624296  0.670858  -0.930587  0.888718  -0.986816  0.416791  -0.582873  -0.765069  0.968566  0.276406  -0.381024  0.416608  0.675391  -0.439755  0.072285  -0.432297  -0.746629  0.401051  0.457296  -0.249911  -0.328003  -0.943582  0.877650  0.950471  -0.236931  0.897616  -0.427325  0.368205  0.153278  -0.146810  0.638476  -0.102381  0.845444  -0.633727  0.250315  0.682119  0.095798  -0.328166  -0.450301  0.925291  0.289576  -0.832162  0.267982  0.644896  0.263375  0.043905  0.787943  -0.846093  0.385502  0.322209  0.361469  -0.583374  -0.737136  -0.555641  0.833134  -0.734683  -0.779893  -0.228644  -0.771221  0.147386  0.941822  0.927478  -0.909632  0.368755  0.083529  -0.438215  -0.667592  0.184851  -0.206275  -0.509032  0.741324  -0.954799  -0.867553  0.626488  -0.511268  0.180406  -1.002200  0.401453  -0.885870  -0.521620  -0.503254  -0.238414  -0.374479  -0.712843  0.483528  0.823795  0.789153  0.275442  -0.493726  0.492144  0.255531  0.561876  -0.534349  -0.660634  0.801874  -0.353191  0.964721  -0.196570  0.840218  0.120052  0.491360  -0.845908  -0.321366  0.350301  0.040892  -0.165939  0.590225  -0.125877  0.904567  0.351307  -0.562448  -0.645204  0.215660  0.980038  0.794564  0.793327  -0.209870  0.528678  -0.188818  -0.020234  -0.249550  0.490524  0.468612  -0.123508  0.816889  -0.067782  -0.508646  0.944784  0.521024  -0.449596  -0.988050  0.552249  0.702416  -0.088978  -0.581879  -0.255431  0.396325  0.425606  0.138868  -0.394099  0.370465  0.136463  1.019910  0.407906  -0.859629  0.799418  -0.207862  0.369854  -0.562914  -0.705741  -0.834101  0.361003  -0.073275  0.033540  -0.468307  -0.151866  0.234011  -0.570435  -0.344097  -0.102916  0.958691  -0.788667  -0.366917  0.695976  0.817758  0.270354  -0.331054  0.595390  -0.961300  -0.449058  0.901385  -0.891084  -0.356867  1.032539  -0.805475  -0.112827  -0.370769  0.731254  0.076266  0.181127  0.168249  0.136814  0.937315  -0.149033  -0.850810  0.273806  0.629536  -0.298613  -0.794927  0.456556  -0.209182  -0.165473  -0.938056  -0.614977  -0.282518  -0.645590  -0.314730  -0.446074  0.973878  0.496119  -0.571174  0.363872  0.386517  0.711722  0.934812  0.535813  0.323588  -0.016388  0.545518  -0.603137  0.761033  -0.603602  0.480932  -0.377274  -0.337111  -0.534500  -0.265773  -0.893351  0.323407  -0.497906  0.825593  -0.814405  -0.130932  -0.560578  -0.465575  0.651843  0.427519  0.366623  -0.268675  -0.105075  -0.072848  -0.659169  0.337077  -0.669301  0.319742  0.691885  0.810724  -0.010102  -0.836096  0.884545  -0.472748  0.035307  0.419276  0.860026  -0.760461  0.251225  0.544562  0.024814  0.801035  -0.668571  -0.884810  -0.621713  0.953047  0.001603  -0.370948  0.723753  -0.716950  -0.795648  0.014679  0.995422  -0.272561  -0.218726  0.052522  -0.607471  -0.445418  -0.408031  -0.297355  0.333741  -0.297080  0.412916  0.908530  -0.824073  -0.498900  0.739863  -0.718674  0.211967  -0.899965  0.308262  -0.666308  -0.896243  0.768095  0.513969  0.637508  -0.089993  0.725843  0.679922  -0.249245  0.576464  0.784417  0.706168  0.502243  -0.164891  0.457320  -0.623980  -0.676960  -0.798835  -0.087814  -0.898683  -0.854735  0.267565  0.163145  0.695631  -0.486737  -0.345638  0.214663  0.464981  -0.854788  0.876163  0.829714  -0.148451  0.133601  0.260070  0.919208  0.969665  0.408857  -0.389630  -0.111301  -0.916746  -0.625172  -0.017365  -0.613269  -0.532151  -0.582934  0.756112  0.743783  0.651815  0.269796  -0.381854  -0.630704  0.665410  0.810270  0.467504  0.783851  -0.514528  -0.558414  -0.314022  0.737297  0.956114  -0.713736  -0.696707  -0.673818  0.745598  -0.106235  -0.380169  -0.239235  -0.112705  -0.660756  0.050203  0.032197  0.795343  0.201774  0.283930  -0.472416  0.611103  -0.136556  -0.994130  -0.468433  -0.547481  0.053245  -0.114873  0.827859  -0.193535  0.506133  0.249838  0.254128  -0.660939  -0.338847  0.634632  0.882199  0.674062  0.580615  -0.642384  -0.491928  0.696768  -0.044588  -0.529954  0.760369  -0.731193  -0.039949  0.172826  0.865597  -0.777215  0.558397  -0.811823  0.813959  0.116733  0.491684  -0.952513  -0.253029  -0.680105  0.269753  -0.633412  0.380657  0.994079  -0.520920  0.172216  -0.723869  0.530686  -0.280557  0.341838  -0.229163  -0.991516  -0.517930  0.219092  0.381756  -0.767144  0.281899  0.467391  0.494491  -0.080599  0.355693  0.224769  0.149144  -0.415082  -0.760125  0.621448  -0.262551  0.707938  -0.460982  0.723380  0.421552  -0.279031  -0.801263  -0.035493  -0.911618  -0.602466  0.594653  0.129002  0.651906  -0.803766  -0.249672  0.947508  -0.485031  0.124180  -0.002777  0.368694  -0.995727  -0.317423  -0.612720  -0.430647  0.590564  -0.543260  0.173193  -0.234779  -0.294412  0.913450  -0.333293  0.885006  -0.029206  -0.032746  0.789178  -0.829951  0.647023  -0.120518  -0.375347  -0.237037  -0.879757  -0.948790  0.291360  -0.654042  -0.764641  -0.726249  0.439985  0.893490  -0.711112  0.998047  -0.305216  -0.400189  0.495346  -0.813166  0.348308  0.045869  -0.268545  0.312313  0.623235  -0.333032  -0.579760  0.052583  -0.193762  0.576952  0.219581  0.278054  -0.408002  0.837275  -0.425825  0.843013  0.905515  -0.811762  -0.302530  0.791742  0.560106  0.350932  -0.056856  0.513718  -0.963195  0.934141  -0.670522  -0.580370  -0.300956  -0.988651  0.032739  0.674250  0.778867  -0.540058  -0.321734  -0.275185  0.473983  0.110263  -0.759148  -0.340922  0.188208  0.608081  0.251808  0.835994  0.860347  -0.512864  0.416486  -0.528855  0.961608  0.979125  -0.896298  0.267739  0.954039  0.984313  -0.202446  0.496127  -0.637727  0.146668  0.878492  -0.026371  0.704392  -0.988496  0.813514  0.944968  0.941519  -0.233376  -0.736321  -0.246559  0.063692  0.595569  -0.822382  0.202185  -0.095187  0.201392  0.896062  -0.352634  -0.932498  0.216668  0.472047  0.458680  0.311533  0.255688  0.710318  -0.046950  0.600752  0.378219  -0.304449  0.510294  -0.285391  -0.162180  0.446443  0.037683  -1.079085  -0.668240  0.278319  0.626331  -0.431074  -0.889035  0.330912  -0.735527  -0.711844  -0.069430  -0.698714  -0.035653  0.611706  0.953246  0.115652  -0.431577  0.284957  -0.581152  -0.923141  0.279648  -0.085451  0.176054  0.848590  -0.914706  0.159837  -0.934751  0.861178  -0.119349  -0.813647  -0.181997  -0.681678  0.050563  0.370577  -0.852901  -0.275369  0.010285  -0.031098  0.036225  -0.131411  -0.026534  -0.387364  0.268407  -0.212408  -0.928006  0.571747  0.527297  0.708865  0.137313  0.046413  0.640583  -0.492928  -0.842432  -0.559444  0.620900  -0.976552  -0.239886  -0.151450  0.710680  0.529959  -0.459146  -0.849480  0.069369  0.082064  0.812067  0.203894  0.625660  0.577932  -0.617462  0.051126  -0.620001  -0.222743  0.247581  0.034266  0.937580  0.706478  -0.714074  0.396691  -0.728770  0.782735  -0.073046  -0.440100  -0.862671  -0.610693  -0.741385  -0.969956  -0.496327  -0.119849  0.939942  -0.470623  0.545152  -0.201880  0.292032  -0.291251  0.837092  0.180939  0.241321  -0.570031  -0.502428  0.243736  0.578638  0.213212  0.246219  -0.847839  -0.471945  -0.840627  0.827344  0.512559  0.589730  -0.325560  -0.364046  -0.580410  0.094473  -0.505321  -1.012764  0.201764  0.552855  -0.539537  -0.850826  0.874325  0.269570  0.544834  0.862728  -0.014473  0.754471  -0.549755  0.771926  0.265854  -0.991716  0.542655  0.761917  0.384113  -0.272626  -0.366921  0.229734  0.343308  -0.055856  -0.790260  -0.072477  -0.689072  0.297286  0.079962  0.252259  0.774938  0.715079  0.223792  0.082186  -0.487533  0.727592  -0.003204  0.147801  0.714375  0.269195  -0.215622  -0.593198  0.454676  -0.633989  -0.417884  0.864114  0.108008  0.695993  -0.214936  0.785552  0.687985  0.260519  -0.297074  0.893407  0.224143  0.278759  -0.330517  -0.491297  -0.312662  -0.218177  0.276894  0.439619  0.057588  0.735954  -0.447432  -0.797174  0.987637  -0.662620  0.483740  -0.566465  -0.914379  0.290249  -0.227141  -0.734745  0.684832  0.472287  -0.022021  0.375853  0.314710  -0.614537  0.502458  0.998173  0.622822  -0.352470  0.552445  0.398263  -0.815546  0.426862  0.069308  0.469954  -0.025483  0.269875  -0.829463  -0.533311  -0.489703  -0.177376  0.879992  0.635739  0.301235  -0.305289  -0.641506  0.281684  0.885360  0.552725  0.641305  0.637846  0.072713  0.001665  0.694384  0.710298  0.685216  0.300875  0.024161  0.370338  0.179418  -0.782159  -0.931394  -0.742546  0.548448  0.859920  -0.898068  0.657826  0.712177  0.700580  0.389536  -0.931179  0.425533  0.437275  -0.799127  0.041886  -0.661028  -0.867462  -0.347643  0.137124  -0.191937  -0.037812  -0.102797  -0.717246  0.150305  -0.100999  0.788072  -0.067541  0.201034  -0.585978  -0.825405  -0.730827  0.994507  0.011750  0.375713  0.051180  0.680865  0.969082  -0.829404  -0.613017  0.417444  -0.202112  0.009373  -0.695582  -0.689071  0.024613  -0.937518  0.154438  -0.163720  0.480513  0.896442  0.986354  0.883732  0.206573  0.682732  0.179322  0.624447  -0.160550  -0.364392  0.202124  0.665944  -0.667348  0.168798  -0.880917  0.988647  0.930873  0.308875  -0.209286  -1.035545  0.894568  0.235823  -0.733385  -0.216325  0.296178  0.895977  0.545124  -0.418032  0.633650  0.617309  -0.679515  -0.289683  0.506519  -0.948372  0.900413  -0.001771  -0.027163  -0.166295  -0.430891  -0.953185  -0.696890  -0.757805  -0.027863  -0.872188  -0.337809  0.914029  0.784718  0.068254  0.650990  -0.727444  -0.160417  -0.008021  -0.300932  -0.040537  0.422232  -0.354528  0.498066  0.326949  -0.523235  -0.352360  -0.872015  -0.615315  0.915034  0.862435  -0.111776  0.947752  0.460128  0.217750  0.629688  -0.368755  -0.961547  -0.790948  -0.363384  0.135578  0.063001  -0.403257  0.720025  0.834914  0.419421  0.246231  -0.280817  0.313628  -0.000771  -0.641738  -0.814693  -0.766828  -0.102509  0.528722  0.633794  0.022076  0.978781  -0.819813  -0.582745  0.681020  -0.082858  -0.518662  -0.881893  -0.222816  0.419172  -0.345439  0.408490  -0.118047  -0.496601  0.914675  -0.026376  -0.461099  -0.389308  -0.815544  -0.332912  -0.898557  -0.312751  -0.280698  0.528865  0.792972  -0.005488  -0.367934  -0.061778  0.791837  0.317750  -0.663863  0.722050  0.420759  0.359783  0.835994  0.003082  -0.712455  0.356792  -0.459639  0.352960  -0.728675  -0.042498  -0.487217  0.401583  0.186648  -0.881707  -0.149766  -0.762672  -0.830492  0.192538  0.282144  0.617065  0.104360  -0.897104  0.380598  -0.896186  0.906957  0.191236  0.426123  -0.647328  0.837275  -0.501267  0.984008  0.672475  0.513474  -0.745354  0.288430  0.279777  -0.438973  -0.229296  -0.726686  -0.324709  -0.024084  0.317942  -0.171168  0.191340  -0.684529  -0.380737  0.339614  0.084734  -0.981134  -0.738761  -0.257213  0.189489  -0.003560  0.922448  0.474220  -0.577929  -0.812738  -0.824030  0.563158  -0.276162  -0.870296  0.684378  0.394024  0.087632  -0.162391  -0.456046  0.344005  0.461393  -0.614019  0.757231  0.690461  0.836618  0.625475  -0.527704  0.091118  0.662379  -0.030994  -0.534170  -0.102240  -0.765119  0.118896  -0.831404  0.106818  0.029572  0.496689  0.567003  0.287759  -0.709647  0.907895  -0.180944  -0.124424  0.072036  -1.018702  0.360367  0.597522  0.491249  0.464368  -0.482413  0.730201  -0.569137  0.274015  -0.450982  0.347793  -0.399587  0.683546  -0.730555  0.558970  -0.738200  0.170336  -0.787396  0.809232  0.978027  -0.191076  0.184912  0.688040  0.573840  0.866695  0.730277  0.134861  0.234503  -0.219429  -0.688065  -0.775766  0.339746  -0.588294  0.268142  0.579953  0.976783  -0.960719  -0.426077  0.421099  -0.852355  -0.797414  -0.535141  0.387433  -0.487316  0.377273  0.244701  0.652367  0.214515  -0.312052  0.122227  -0.866207  -0.478011  -0.010163  0.985168  -0.085177  -0.957701  -0.079012  -0.532773  0.366058  -0.250164  0.254124  -0.748520  0.542344  -0.870507  0.715835  -0.266388  -0.345881  0.876569  0.804667  0.717628  -0.558275  0.259987  0.825434  -0.775994  -0.722343  -0.234230  0.162084  0.968566  0.831843  0.588183  -0.302286  0.982238  -0.957823  0.863155  -0.828376  0.590979  -0.730887  -0.526173  0.042398  0.121193  -0.600700  0.927876  -0.947669  -0.558161  0.845073  -0.081285  0.970138  0.935347  0.876522  -0.999756  -0.454939  0.020966  0.687613  0.130345  -0.702872  0.841731  -0.517747  -0.489670  -0.740287  0.462813  0.643544  0.300882  -0.977905  -0.097873  0.758965  0.814509  0.421491  0.325297  -0.698416  0.722648  -0.829340  -0.589160  -0.216285  0.845210  -0.259316  -0.045869  0.195227  -0.915647  -0.191260  -0.228248  -0.459700  0.065523  -0.413984  0.969543  0.283792  -0.952818  0.336344  -0.364055  -0.479598  -0.335734  -0.601245  0.024323  0.679250  0.064241  0.026948  0.284951  0.575487  -0.998535  -0.643239  -0.188452  -0.377300  0.451033  0.816340  -0.737236  0.017914  0.303629  0.288553  -0.677664  -0.288919  -0.293802  0.341594  -0.740410  0.973144  0.608875  -0.162816  -0.646168  -0.626576  0.081454  -0.769463  0.243995  -0.019440  0.962462  0.874630  -0.733207  0.597705  -0.598010  0.640309  0.845882  0.845821  0.862178  0.165624  0.993591  0.907285  -0.863155  0.046663  0.989318  0.741752  -0.046602  -0.718192  0.295755  -0.412580  -0.280923  -0.716910  -0.224464  0.560167  0.974548  -0.234169  -0.727897  0.162084  -0.883724  0.829951  0.615528  -0.486435  -0.047761  0.545213  0.116611  -0.880764  0.643161  0.345422  -0.394835  -0.013459  -0.353008  -0.403424  0.125767  0.892087  0.069674  -0.506821  -0.803644  0.637257  0.248146  -0.140233  -0.043306  -0.923276  -0.134190  0.905271  -0.996460  -0.250771  -0.680776  -0.598254  -0.865047  -0.082186  0.847591  -0.453810  0.011836  0.824867  0.976902  -0.185793  0.796293  0.012469  0.959288  0.218177  -0.074007  0.476547  0.418989  0.960631  -0.224952  0.376385  -0.648549  -0.650380  -0.197668  0.449141  -0.546007  -0.276101  -0.299722  0.494003  -0.298502  -0.957579  -0.059786  0.050240  -0.380601  -0.664008  -0.335695  0.915874  0.740086  -0.690064  -1.036754  0.631314  0.255636  0.709605  -0.129661  0.138536  0.289041  0.851680  0.438398  0.857479  0.053621  0.131260  0.820795  -0.789965  -0.115078  -0.603940  0.065043  1.011300  -0.323701  -0.820075  -0.724054  -0.785313  -0.461298  -0.967120  0.846598  -1.027485  -0.429585  0.635208  -0.154381  0.658495  -0.808790  -0.225336  -0.562495  -0.041363  -0.267617  -0.258339  0.259987  -0.539903  -0.586047  0.431562  -0.884823  -0.278780  -0.765413  -0.459617  0.453073  0.367210  -0.584943  0.886494  0.460192  -0.908021  0.689348  0.857065  0.518648  -0.364966  0.677465  -0.044153  -0.579901  0.264079  0.937799  -0.754708  -0.829887  -0.417936  -0.620751  -0.033903  0.667959  -0.420881  -0.787774  0.020173  -0.948363  0.849048  -0.082728  0.697469  -0.765679  -0.244592  0.460385  0.214698  0.177902  -0.308554  0.446897  0.733275  0.913932  -0.197138  0.448416  0.495028  0.067880  -0.642887  -0.942381  0.285589  0.622850  -0.330077  -0.937152  -0.712924  -0.817560  -0.839778  -0.909543  0.532273  -0.960143  0.420276  0.309021  -0.780847  -0.218058  0.391178  0.184204  0.952325  -0.617695  -0.346716  0.088788  -0.323071  -0.160225  0.496797  0.462359  -0.552068  0.517747  -0.047350  0.106673  -0.275547  0.310037  0.901034  -0.539274  0.104606  0.642689  0.771477  -0.909909  -0.418716  -0.134678  -0.056533  -0.830284  -0.295422  0.439919  -0.415334  0.383168  -0.455138  0.163499  -0.765261  -0.509233  0.080670  -0.495363  0.307954  0.171982  0.043162  -0.497168  0.654795  -0.542304  0.919715  -0.179027  0.666038  -0.673742  -0.728263  0.358379  -0.103732  -0.479049  -0.990572  -0.991089  -0.568724  0.056661  -0.432312  -0.522499  -0.443388  -0.868799  -0.797376  -0.101960  0.115227  0.831077  -0.081990  0.526840  -0.676887  -0.246222  0.505789  0.726110  0.476420  0.707726  0.015056  -0.389252  -0.599433  0.461592  0.828547  0.625538  -0.861873  -0.900693  0.088351  -0.606861  0.966827  -0.399237  0.239393  0.624261  -0.405778  0.869116  -0.798940  0.674742  0.918812  -0.441431  0.697844  0.139056  -0.901878  0.562530  -0.480531  -0.930128  0.255576  -0.033646  0.081210  -0.395476  -0.950377  -0.621204  0.887814  -0.957701  -0.978576  -0.706046  0.232582  -0.008881  0.436354  0.356213  -0.195740  -1.000506  -0.041595  -0.969205  0.597209  -0.396233  -0.707890  0.257705  -0.830509  0.479168  -0.407337  -0.579265  0.669534  0.767458  -0.007540  0.470436  0.294375  0.592861  -0.068209  -0.422407  0.642689  0.063936  -0.921506  -0.184545  0.413984  0.736442  0.749718  0.513993  -0.201111  0.311213  -0.103486  -0.113283  0.679885  -0.925513  -0.322370  -0.039073  0.480527  -0.316210  0.377810  0.552394  0.342769  -0.120929  0.424501  0.731661  -0.210263  0.665997  -0.268899  -0.754021  0.887326  0.232398  -0.091159  -0.811212  -0.911863  -0.828547  -0.447523  -0.659138  0.957305  0.070560  -1.028269  -0.447149  -0.124454  -0.598202  0.768339  0.413943  -0.417626  -0.020588  -0.083167  -0.924231  -0.361339  -0.608293  0.939665  -0.009826  0.386590  0.431783  -0.667489  0.483914  0.178883  0.520188  -0.101535  -0.655568  0.196692  -0.728874  0.520158  0.008790  0.130156  -0.612122  -0.406488  -0.838555  -0.479829  0.850811  -0.808316  0.734439  0.265403  0.298153  0.480453  0.167465  -0.323054  0.013481  -0.366822  -0.002934  -0.515399  0.972490  -0.810803  0.877053  -0.315334  0.224708  -0.712821  0.167455  -0.728568  -0.119419  -0.175817  -0.949918  -0.155070  -0.656502  -0.710042  0.181153  0.056836  0.506576  0.414737  0.329924  -0.419236  0.985417  -0.157434  1.009583  0.312468  -0.793395  0.326565  -0.782882  0.858476  0.124808  0.985914  -0.513948  -0.731315  -0.149449  -0.728935  0.940123  0.855098  -0.797357  0.307047  0.278359  0.336125  -0.305803  0.924455  0.495113  0.072449  0.529539  0.661041  0.535082  0.726616  -0.255223  -0.702303  -0.332186  -0.895718  0.743422  0.349428  0.111986  0.960867  0.091243  0.025650  -0.082202  -0.361126  -0.581896  0.827082  0.617176  -0.574267  0.774651  -0.530381  -0.036409  -0.647663  -0.139842  -0.581023  0.024721  0.016262  0.456386  0.764318  -0.322308  -0.377018  -0.742835  0.478696  0.890829  -0.766361  -0.766896  -0.731727  -0.320813  0.894110  1.013780  -0.385936  1.002778  0.742485  -0.364849  0.948180  -0.129124  -0.987060  -0.629810  -0.595996  -0.381878  0.193385  -0.183109  0.038950  -0.599485  0.932650  -0.971473  0.866475  -0.384824  0.811963  -0.118725  -0.928927  0.189160  -0.507422  -0.228842  -0.957896  -0.274436  0.923696  -0.932996  0.053775  0.900677  -0.036836  0.369121  0.976379  0.842280  -0.307413  0.264870  0.775017  0.770232  0.583585  -0.233634  -0.180254  -0.683039  -0.972562  0.224985  -0.462544  0.843120  0.344300  -0.068170  -0.227842  -0.295508  0.175980  0.531864  -0.718240  -0.238149  0.080242  -0.572250  0.396025  0.286782  -0.058626  -0.142125  0.720450  -0.462447  0.148045  0.301920  -0.628224  0.101754  -0.540997  -0.426699  -0.872458  -0.011400  0.368640  0.597902  0.527957  -0.279059  -0.386523  0.878964  0.187990  -0.923876  0.267552  -0.314016  0.525224  0.315042  0.006575  -0.893601  -0.722295  -0.447737  -0.637928  -0.903806  -0.953429  0.806574  0.485336  0.197302  0.944456  -0.333501  -0.282272  0.244964  0.474559  -0.231270  -0.806496  0.488658  -0.048328  -0.897905  -0.704457  0.346024  0.541914  -1.010358  0.416737  -0.283269  0.760888  -0.534701  0.635560  0.314360  0.314500  -0.373516  0.871761  0.835627  0.629200  0.840144  0.490036  0.519333  -0.986816  0.195166  0.107611  -0.375272  0.131210  -0.862824  -0.392950  0.327599  -0.589878  0.023734  -0.287993  -0.868317  0.737060  0.704366  0.345281  -0.175732  0.540230  0.865707  0.113609  0.055014  -0.381078  0.442305  -0.689077  -0.365215  -0.451094  -0.874630  -0.487655  0.782525  -0.661733  0.563000  0.956384  -0.517774  -0.863247  0.354775  0.142063  -0.716760  0.173337  -0.305801  -0.811437  0.380245  -0.299480  -0.815353  -0.556979  -0.720962  -0.310549  0.155498  -0.297762  -0.132535  -0.213348  -0.726737  0.452193  0.398358  -0.573351  0.794977  -0.830622  0.091891  -0.263344  0.916013  -0.014924  -0.858148  -0.707325  -0.311293  1.042780  0.410812  -0.476264  -0.324610  -0.945569  -0.798528  0.427506  0.858366  0.535297  -0.733418  0.770501  -0.815546  0.023225  -0.392804  0.526414  -0.159398  -0.572253  -0.158300  0.779656  -0.691946  -0.949278  0.775323  0.934629  0.886410  -0.514387  0.361311  -0.546090  0.020016  -0.001410  -0.599794  0.383915  0.468193  -0.948720  -0.742246  0.952790  -0.268743  -0.542739  -0.781576  0.741997  -0.152440  0.125706  -0.447798  0.352153  0.127354  -0.962767  0.318705  -0.712577  0.402081  0.615711  -0.557970  -0.857662  0.760430  0.978820  0.417585  0.884884  0.935972  0.012482  -0.673391  0.053011  -0.032136  0.639760  0.280252  0.674245  -0.307169  0.593188  -0.649037  -0.280496  0.632557  -0.995605  0.055330  0.905515  -0.162755  -0.878353  0.450240  -0.343486  -0.750237  -0.530442  0.904294  0.039582  0.150487  0.762322  0.607898  -0.515793  0.247841  0.883358  -0.115818  0.100192  0.975402  -0.755852  0.363079  0.405194  -0.441816  0.834346  0.080905  0.275368  -0.588183  -0.724845  -0.431196  0.930845  -0.564440  -0.809381  -0.008515  0.768975  -0.237648  -0.794000  -0.600452  0.857906  0.528855  -0.110996  0.157384  0.902402  -0.773003  -0.055818  -0.390728  -0.504807  -0.799371  0.973937  -0.953246  -0.534104  0.848811  0.118259  -0.961180  0.139988  0.098361  0.886410  0.187963  -0.679617  -0.290750  -0.508286  -0.625660  0.804621  -0.026154  -0.996521  0.551622  0.248878  0.373394  0.627247  0.154576  -0.806940  0.754082  0.426923  0.183935  0.058016  -0.414777  0.800531  -0.971313  -0.066465  -0.131739  -0.970937  -0.903858  -0.070284  0.213050  0.164464  -0.735282  0.025422  -0.215796  0.708609  -0.636341  0.022797  0.444807  0.163244  0.506516  0.624622  0.896115  0.996277  0.575976  -0.675771  0.233192  0.196448  0.782098  0.961486  -0.472457  0.782987  0.400686  -0.237686  1.004216  0.545889  -0.230210  0.598760  -0.714469  0.363323  0.508774  0.501999  0.537400  -0.525010  -0.736259  -0.107883  -0.376019  -0.224097  -0.317240  0.658376  -0.709098  0.772637  -0.983642  0.736992  -0.336161  -0.715445  0.217444  0.055921  -0.281757  -0.718031  -0.340524  -0.469449  -0.730971  0.200911  -0.468349  0.224887  -1.012642  0.870131  -1.006951  0.358264  -0.659535  -0.106418  -0.886227  0.255287  -0.896603  0.704825  -0.428388  0.622521  -0.572095  -0.896244  0.510211  -0.456677  -0.289741  -0.657436  -0.729892  0.560754  0.506435  -0.499609  0.889471  0.450985  -1.024870  -0.198369  -0.530158  -0.742936  -0.869007  -0.574787  -0.378212  0.038200  -0.926389  0.245216  0.308329  -0.783563  0.706534  0.072787  0.026093  0.314406  -1.039970  -0.974416  -0.976735  0.190284  -0.154847  -0.632477  0.622296  -0.860057  -0.992630  0.520929  -0.074321  0.523619  0.631347  -1.018005  -0.532333  0.772050  0.093543  0.309646  -0.771226  -0.192144  -0.640239  -0.920930  0.081759  -0.561205  0.344768  -0.559130  -0.524705  0.100874  0.832681  0.877698  -0.333193  -0.106743  -0.865250  0.363135  0.797156  -0.460060  0.307291  0.570703  -0.124315  -0.172500  0.372969  -0.562321  -0.047990  0.176441  -0.195218  0.494159  0.039195  -0.606337  0.904695  -0.105693  0.293008  -0.459944  0.582446  0.865719  -0.497360  0.969275  -0.190515  -0.100847  0.638543  -0.891768  0.136073  0.006308  -0.213659  0.185879  0.191358  0.836339  0.333866  0.927347  -0.936182  0.665986  -0.189730  0.238513  0.633485  -0.108780  0.800594  0.218677  0.888966  0.429174  -0.051302  0.272500  0.844905  0.042678  0.224219  0.140660  0.519796  0.327570  -0.126680  -0.807240  0.393458  -0.267740  0.245989  -0.669711  -0.390900  0.475621  -0.552401  0.649671  0.859658  -0.415749  -0.473586  -0.602044  -0.731584  0.751117  0.924082  0.860515  0.619522  0.164403  -0.097629  0.176489  -0.790338  0.605195  -0.094211  -0.054337  -0.513274  -1.021855  0.982118  0.240802  -0.259815  0.615505  0.470121  0.751067  0.673600  -0.569099  -0.825821  -1.013954  -0.760858  -0.894462  -0.883664  0.648430  -0.722184  -0.065990  0.286743  -0.951339  0.735466  -0.190649  -0.833674  0.393231  0.716666  -0.957884  -0.744316  0.790049  -0.793584  0.543859  -0.029136  0.851526  0.050928  -0.508237  0.759737  -0.283643  -0.514037  0.333215  0.027636  0.291023  -0.883915  0.232692  0.434350  -0.539189  -0.095196  0.093960  0.248408  -0.471847  -0.270424  -0.070467  -0.724784  -0.673879  0.135289  0.145726  -0.169225  -0.487395  -0.610384  -0.045697  -0.906245  -0.087739  0.093592  -0.616550  -0.598345  -0.554745  -0.245076  -0.983150  0.402964  -0.759101  -0.201791  -0.316953  0.372996  0.626981  -0.015047  -0.275758  -0.621021  0.880184  0.899411  -0.620411  0.136937  0.836482  0.126804  0.177709  0.992981  0.419921  -1.017684  -0.255726  -0.532185  -0.934810  0.845813  0.970595  -0.021098  0.328963  -0.303139  -0.213350  -0.942774  0.231688  -0.806192  -0.825251  0.391666  0.685511  -0.355189  0.357438  0.698696  0.475326  -0.607044  0.260781  -0.190344  0.662404  0.737663  0.216102  0.854671  0.134817  0.246514  -0.189900  0.536085  -0.195949  -0.332963  0.210920  0.001743  -0.194794  -1.025075  0.538687  0.717487  -0.118716  0.881082  -0.347566  0.658059  -0.139204  -0.737642  0.590915  0.192630  -0.983125  0.816369  -0.197694  -0.357280  0.747490  -0.836665  0.595508  -0.350688  -0.755164  0.555240  -0.396719  0.065265  -0.893464  -0.250975  0.627626  -0.732542  -0.120589  -0.817016  0.574045  0.552293  0.651445  -0.344214  -0.131341  0.603064  -0.224800  -0.742912  -0.945829  -0.375528  -0.978791  0.455457  0.252393  -0.782769  0.167455  -0.281411  0.745720  0.965819  0.373028  -0.989485  0.125697  -0.761902  0.170267  0.387004  0.159778  0.794335  -0.535793  0.022126  0.856838  0.914288  0.246732  -0.309032  -0.385000  -0.166439  0.695211  0.478044  0.535453  -0.974179  -0.144348  -0.797810  -0.875179  0.525926  0.341899  0.952574  -0.403546  -0.716910  -0.769829  -0.219153  -0.286869  -0.137139  0.284201  0.463544  0.831201  -0.691573  0.008363  -1.019126  -0.175458  -0.792594  0.803775  0.175790  -0.779802  -0.703772  -0.540688  -0.224315  -0.568012  -0.560107  0.798450  0.861440  0.830805  -0.171911  -0.781671  -0.154393  0.736747  -0.756340  0.684744  0.966979  0.834052  0.506388  0.242268  -0.900102  0.677387  0.804185  -0.328202  0.897667  -0.685322  0.692113  0.303576  0.087835  0.307890  0.906278  -0.769087  -0.626589  -0.689049  0.864500  -0.917811  -0.949611  -0.117405  0.618213  0.116977  0.026154  -0.485214  -0.897641  0.072726  -0.718192  0.321918  -1.032072  0.860249  0.364819  0.583811  -0.665193  0.506750  0.830229  -0.697597  -0.353564  -0.442223  -0.557761  0.434026  0.870719  -0.076182  0.012609  0.892044  0.734674  0.357130  0.396399  -0.984130  0.145299  -0.077303  -0.055940  0.267739  -0.211463  -0.215369  -0.982050  -0.062064  -0.727143  -0.398431  0.304111  -0.117368  0.321418  -0.163000  -0.903806  0.215649  0.578553  0.167601  0.536904  0.559941  -0.467702  -0.746843  -0.968727  0.038538  -0.833632  0.401937  0.000214  0.259255  0.920469  0.312357  -0.061251  0.866817  0.019440  -0.324137  -0.410988  -0.477477  0.710211  -1.006282  0.668949  0.099574  -0.909721  0.173833  0.651317  -1.028122  -1.010588  0.554788  0.443414  -0.534613  -0.698138  0.605654  0.961727  -0.736907  0.691419  -0.217528  0.388043  0.206275  -0.350078  0.704886  0.139378  0.767205  0.901059  -0.986999  0.439929  -0.043234  -0.288073  -0.834212  -0.004036  0.100454  0.476710  -0.895726  -0.215602  0.303959  -0.466245  -1.049070  0.679407  0.755361  0.307378  0.124865  0.001214  0.692335  0.810715  0.121647  -0.493210  -0.333171  -0.967772  0.621082  0.134617  -0.251076  0.455672  0.642628  -0.710158  0.282816  -0.519486  0.501256  0.190279  -0.048763  0.820891  0.370009  0.037431  0.006928  -0.579674  -0.700567  0.652371  -0.179969  0.192711  0.610044  -0.264513  -0.161910  0.675884  -0.396069  0.884396  0.884579  0.855281  0.141758  0.349223  -0.463179  -0.488083  -0.930235  0.654381  -0.017149  0.089023  -0.845888  -0.867378  0.405663  0.933599  -0.858154  -0.708375  -1.059296  -0.942726  0.125386  -0.679783  -0.952159  -0.626162  -0.804939  -0.289803  0.175054  0.535600  0.457473  -0.102023  0.508042  -0.168004  0.150426  0.065340  -0.513474  -0.603870  -0.865169  0.553880  0.277200  0.550685  0.620329  0.241735  0.901792  -0.369903  0.405678  0.147083  -0.126029  0.362248  0.795404  -0.363200  0.046236  0.875424  0.634816  0.307779  0.207678  -0.718558  0.148839  -0.946959  -0.495956  0.612049  -0.951170  0.025666  0.525010  0.861812  0.975280  0.379925  0.623625  0.813938  0.757659  0.056976  0.874649  -0.249362  0.658300  0.622090  0.625569  -0.358304  -0.908627  -0.297036  -0.378521  0.917906  -0.067293  0.946348  0.269265  0.442793  0.795160  0.219764  0.199194  -0.593799  -0.366985  0.556566  0.532029  0.694449  -0.040681  -0.147618  -0.722953  0.190283  -0.607959  0.453597  0.795038  -0.386395  -0.633656  -0.729545  -0.292886  0.043062  0.819330  -0.026826  0.558580  0.175817  -0.340068  -0.168249  -0.451643  0.388897  0.836909  0.763054  -0.362224  0.662526  0.816157  -0.852596  -0.649586  -0.569323  -0.718680  -0.022248  0.576403  -0.581164  -0.130345  -0.097934  -0.307657  -0.467086  0.754875  0.724357  -0.688955  0.861507  0.890866  -0.076022  0.971862  -0.146031  0.727409  -0.242347  0.085299  0.736564  -0.788263  -0.494247  -0.555834  0.229408  -0.112461  0.425520  0.613514  0.627125  -0.096713  -0.025788  -0.488510  0.304605  0.744682  0.863948  -0.504807  -0.288553  0.501083  -0.488937  0.261696  -0.082553  0.480270  -0.557299  -0.121128  -0.229530  -0.017304  0.222938  0.257363  0.731376  0.049348  -0.539415  -0.623768  -0.554247  -0.006256  0.461959  0.575304  -0.882015  -0.467635  -0.909543  0.226173  -0.252785  0.324747  0.395856  0.095004  0.290078  -0.263588  0.575060  -0.291238  0.811090  0.633000  0.826375  -0.963841  -0.317764  0.047151  0.671682  0.809503  -0.092502  0.441328  -0.730644  0.757622  -0.406354  0.529893  0.348003  -0.866878  0.698599  -0.679189  -0.744377  -0.223853  -0.948851  0.281655  -0.272744  0.068087  -0.254006  -0.589038  0.920713  0.071643  0.966469  0.036074  0.289045  0.205607  0.268957  0.128816  0.815302  -0.362346  0.486068  0.997070  0.286721  0.976501  -0.848079  -0.871517  0.977782  -0.771172  0.671804  -0.023957  -0.501450  0.620228  -0.797540  -0.429609  -0.745659  -0.556261  -0.661977  0.715164  -0.853481  